SVM-light Version V6.01
0 # kernel type
3 # kernel parameter -d 
1 # kernel parameter -g 
1 # kernel parameter -s 
1 # kernel parameter -r 
empty# kernel parameter -u 
90 # highest feature index 
140 # number of training documents 
31 # number of support vectors plus 1 
-0.079688474 # threshold b, each following line is a SV (starting with alpha*y)
2.8196077188914425e-005 1:57 2:39 3:6 4:69 5:36 6:63 7:78 8:60 9:6 10:126 11:75 12:96 13:66 14:39 15:21 16:6 17:36 19:103 20:27 21:9 23:78 24:3 25:33 26:3 27:36 28:12 29:86 31:78 33:42 34:6 35:12 36:15 37:3 39:6 40:24 41:3 42:33 43:15 44:128 45:183 46:12 47:3 48:18 49:9 50:6 52:51 53:15 55:9 57:3 58:3 59:3 60:15 61:63 62:48 63:6 64:15 65:15 66:27 67:6 68:57 69:57 70:24 71:39 72:15 73:6 74:3 75:3 76:12 77:45 78:15 79:21 80:36 81:18 82:39 83:9 84:69 85:73 86:9 88:9 89:27 90:45 #
-2.3816760450218014e-005 1:24 2:6 3:15 4:27 5:93 6:24 7:21 8:18 9:12 10:36 11:15 12:27 13:9 14:9 15:15 16:45 17:18 18:36 19:6 20:39 21:30 22:27 23:366 24:33 25:48 26:90 27:39 28:36 29:66 31:12 33:84 34:18 35:12 36:33 37:3 39:24 40:3 41:3 42:3 44:3 45:33 46:9 48:9 51:6 52:30 53:21 54:9 55:6 56:9 58:6 59:15 60:24 61:15 62:6 63:6 64:6 65:12 68:3 69:27 70:45 71:39 72:3 73:3 74:9 75:30 76:33 77:12 78:39 79:24 80:15 81:21 82:351 83:6 84:171 85:36 86:9 87:3 88:12 90:69 #
-4.0316193580233228e-005 1:9 2:21 3:6 4:24 5:60 6:18 7:24 8:24 9:18 10:9 11:75 12:12 13:3 14:51 15:12 17:6 18:51 19:114 20:36 21:12 22:6 23:21 24:46 25:21 26:9 27:42 28:21 29:63 30:12 31:45 32:3 33:45 34:15 35:24 36:15 37:6 38:6 39:3 40:6 41:12 42:27 43:3 44:9 45:15 46:6 47:6 48:9 50:9 51:6 52:3 53:27 54:15 55:3 56:6 57:18 58:3 59:9 60:24 61:9 62:45 63:6 65:15 66:12 67:21 68:3 69:45 70:21 71:27 72:3 73:15 74:3 76:24 77:42 78:6 79:9 80:36 81:15 82:9 83:27 84:21 85:30 86:12 87:6 88:3 89:12 90:54 #
3.0038277090636188e-005 1:126 2:84 3:42 4:174 5:30 6:54 7:135 8:96 9:18 10:345 11:123 12:198 13:159 14:54 15:3 16:21 17:18 18:69 19:177 20:6 21:33 22:15 23:84 24:42 25:21 26:12 27:39 28:6 29:84 31:102 32:3 33:207 34:42 35:9 36:93 37:15 38:9 39:6 40:36 41:42 42:42 43:12 44:351 45:321 46:24 47:3 48:18 49:36 50:12 51:9 52:75 53:21 54:9 55:15 56:15 57:6 58:18 59:15 60:63 61:153 62:12 63:3 64:90 65:45 66:6 68:60 69:33 70:27 71:36 72:21 73:15 74:39 75:15 76:63 77:42 78:81 79:3 80:147 81:12 82:87 83:60 84:12 85:18 86:24 87:6 88:9 89:15 90:48 #
7.6170628298085187e-005 1:105 2:45 4:63 5:48 6:51 7:63 8:63 9:21 10:78 11:72 12:90 13:48 14:33 15:18 16:9 17:36 18:15 19:103 20:45 21:21 23:27 25:36 26:3 27:18 28:15 29:50 30:6 31:63 32:9 33:39 35:18 36:27 37:3 38:9 40:12 42:51 43:6 44:113 45:153 46:9 48:48 49:24 50:24 51:6 52:63 53:33 55:30 56:12 57:21 59:21 60:33 61:51 62:54 63:12 64:12 65:15 66:21 68:39 69:66 70:18 71:27 72:15 74:45 75:6 76:6 77:72 78:24 79:21 80:30 81:12 82:21 83:30 84:42 85:82 86:12 88:6 89:9 90:24 #
7.554115022366211e-005 1:24 2:18 3:9 4:12 5:165 6:30 7:33 8:12 9:24 10:27 11:42 12:33 13:18 14:33 15:21 16:9 17:42 18:15 19:15 20:15 21:3 22:6 23:69 24:3 25:33 26:9 27:3 28:21 29:18 30:3 31:15 32:6 33:42 34:21 35:6 36:15 37:3 38:9 39:21 40:3 41:3 42:12 43:3 44:30 45:24 46:6 48:48 49:3 50:3 51:3 52:3 53:48 54:12 55:24 56:3 57:18 58:6 59:9 60:24 61:9 62:9 63:21 64:15 65:24 67:27 68:3 69:66 70:33 71:36 72:3 74:18 75:30 76:24 77:15 78:6 79:69 80:18 81:33 82:63 84:72 85:18 86:12 87:3 88:3 89:12 90:15 #
-5.9202324880285739e-005 1:120 2:66 3:6 4:75 5:45 6:60 7:51 8:63 9:12 10:51 11:96 12:78 13:12 14:48 15:21 16:36 17:35 18:18 19:45 20:18 21:21 22:6 23:45 24:3 25:33 26:3 27:36 28:9 29:21 30:6 31:42 32:3 33:60 34:12 36:48 37:21 38:9 40:24 41:6 42:42 44:15 45:39 46:6 47:18 48:6 50:9 51:42 52:9 53:24 54:12 55:15 56:36 57:33 58:21 59:12 60:39 62:21 63:12 64:6 65:36 66:6 67:45 68:3 69:30 70:28 71:24 72:12 73:6 74:78 75:21 76:27 77:45 78:75 79:30 80:33 81:18 82:12 83:30 84:60 85:21 86:12 87:18 88:18 89:21 90:27 #
-1.2569739690432055e-005 1:36 2:3 3:24 4:30 5:81 6:30 7:9 8:24 10:60 11:51 12:33 13:18 14:39 15:6 16:9 17:51 18:42 19:138 20:15 21:45 22:27 23:60 24:54 25:66 26:36 27:45 28:15 29:24 31:69 33:99 34:45 35:24 36:30 37:27 39:42 40:9 41:3 42:12 44:204 45:132 46:3 51:6 52:18 53:9 54:6 55:6 56:6 59:3 61:6 63:15 65:45 66:15 68:24 69:36 70:45 71:57 72:9 74:3 75:21 76:36 77:21 78:36 79:48 80:33 81:9 82:273 83:27 84:15 85:69 86:12 88:12 89:9 90:135 #
-2.4678067927660807e-005 1:153 2:42 3:18 4:48 5:111 6:57 7:93 8:30 9:18 10:111 11:63 12:81 13:144 14:60 15:9 16:15 17:56 18:9 19:153 20:30 21:15 22:24 23:108 24:24 25:30 26:30 27:21 28:27 29:18 30:15 31:81 32:27 33:114 34:45 35:18 36:69 37:12 38:9 39:72 40:30 41:42 42:81 43:39 44:396 45:123 46:21 47:63 48:45 49:3 50:45 51:54 52:30 53:30 54:24 55:12 56:45 57:66 58:3 59:18 60:57 61:3 62:24 63:18 64:24 65:48 66:6 67:33 68:99 69:66 70:31 71:54 72:12 73:3 74:18 75:33 76:48 77:30 78:48 79:30 80:69 81:9 82:150 83:30 84:84 85:60 86:18 87:27 88:24 89:42 90:63 #
-2.6906332710231208e-006 1:129 2:36 3:18 4:42 5:105 6:48 7:81 8:81 9:15 10:135 11:63 12:99 13:28 14:96 15:63 16:21 17:53 18:33 19:45 20:36 21:12 22:30 23:48 24:12 25:85 26:21 27:9 28:18 29:67 30:15 31:27 32:9 33:72 34:21 35:12 36:72 37:24 38:13 39:33 40:12 41:6 42:9 43:12 44:324 45:177 46:12 47:18 48:36 49:18 50:45 51:75 52:72 53:60 54:9 55:33 56:15 57:105 58:33 59:27 60:21 61:51 62:156 63:48 64:12 65:69 66:21 67:111 68:33 69:162 70:27 71:89 72:18 73:12 74:54 75:126 76:78 77:33 78:24 79:30 80:27 81:24 82:66 83:21 84:51 85:42 86:15 87:15 88:6 89:45 90:87 #
-1.5232912240860219e-005 1:90 2:66 3:3 4:39 5:39 6:42 7:18 8:51 9:18 10:21 11:90 12:72 13:9 14:66 15:21 16:3 17:48 18:33 19:48 20:24 22:15 23:3 24:39 25:36 26:9 27:24 28:3 29:27 30:3 31:63 33:42 34:9 35:3 36:33 37:6 38:6 40:12 41:12 42:39 43:6 44:9 45:9 46:6 47:3 51:15 53:18 54:6 55:27 56:3 57:12 58:27 59:21 61:9 62:3 63:6 64:12 65:36 66:3 67:3 68:6 69:39 70:24 71:18 74:21 75:18 76:45 77:18 78:54 79:42 80:51 81:12 82:15 83:30 84:30 85:24 86:9 87:6 88:33 89:21 90:54 #
-1.6242285786314493e-005 1:75 2:54 3:45 4:102 5:33 6:33 7:177 8:15 9:15 10:363 11:60 12:174 13:192 14:72 15:12 16:57 17:17 18:33 19:156 20:24 21:18 22:15 23:156 24:12 25:23 26:21 27:33 28:24 29:81 30:27 31:84 32:9 33:96 34:15 35:18 36:27 37:3 38:12 39:24 40:24 41:39 42:54 43:15 44:489 45:420 46:99 47:75 48:99 49:75 50:153 51:93 52:450 53:66 54:57 55:114 56:75 57:72 58:126 59:60 60:102 61:222 62:27 63:18 64:114 65:15 66:27 67:69 68:168 69:93 70:58 71:39 72:30 73:42 74:36 75:9 76:63 77:36 78:63 79:15 80:78 81:15 82:180 83:33 84:108 85:108 86:15 87:36 88:3 89:27 90:3 #
0.0001512791426188933 1:87 2:57 3:33 4:54 5:129 6:45 7:72 8:51 9:27 10:75 11:87 12:96 13:60 14:105 15:21 16:57 17:39 18:42 19:57 20:24 21:18 22:6 23:111 24:33 25:45 26:48 27:33 28:30 29:66 30:30 31:45 32:9 33:99 34:81 35:12 36:48 37:33 38:6 39:18 40:24 41:39 42:39 43:21 44:207 45:78 46:9 47:21 48:45 49:9 50:6 51:30 52:57 53:36 54:15 55:48 57:36 58:3 59:24 60:45 61:27 62:54 63:15 64:45 65:48 66:12 67:44 68:39 69:63 70:24 71:74 72:12 73:6 74:48 75:30 76:45 77:33 78:42 79:27 80:84 81:18 82:201 83:9 84:69 85:60 86:12 87:18 88:9 89:12 90:78 #
9.3380846976393619e-005 1:105 2:54 3:9 4:18 5:39 6:12 7:75 8:90 9:9 10:69 11:27 12:78 13:12 14:66 15:15 16:15 17:21 18:15 19:42 21:24 22:9 23:30 24:21 25:42 27:6 29:30 30:9 31:12 33:81 34:33 36:51 37:9 40:15 41:3 42:9 43:12 44:21 45:42 46:15 47:3 48:12 49:6 50:30 52:51 53:18 54:18 55:12 56:18 57:18 59:9 60:15 61:6 62:33 63:9 64:24 65:33 66:9 67:24 68:12 69:18 70:48 71:15 72:9 73:9 74:60 75:27 76:9 77:3 78:18 79:30 81:24 82:51 83:3 84:27 85:27 86:6 87:6 89:18 90:24 #
0.00017558124791335091 1:69 2:30 3:45 4:21 5:147 6:36 7:27 8:6 9:24 10:21 11:60 12:18 13:15 14:42 15:42 16:9 17:27 18:30 19:16 20:21 21:18 22:15 23:39 24:15 25:45 26:12 27:12 28:9 29:55 30:15 31:12 32:6 33:24 34:39 35:6 36:15 37:6 38:15 39:12 40:6 42:6 43:12 44:17 45:6 46:3 47:18 48:33 49:3 50:39 51:24 52:18 53:24 54:3 55:15 56:6 57:24 58:21 59:18 60:9 62:45 63:21 65:27 66:9 67:45 68:9 69:93 70:60 71:45 72:15 74:42 75:48 77:9 78:9 79:51 80:6 81:48 82:39 84:42 85:21 87:18 89:6 90:42 #
-2.9502124247107567e-005 1:81 2:48 3:27 4:39 5:27 6:33 7:69 8:96 9:12 10:45 11:111 12:132 13:24 14:60 15:27 16:21 17:15 18:15 19:63 20:15 21:9 22:3 23:21 24:6 25:27 26:6 27:30 28:24 29:60 30:12 31:45 32:12 33:72 34:18 35:12 36:42 37:9 38:9 39:3 40:66 41:24 42:48 44:15 45:36 46:30 47:15 48:66 49:81 50:36 51:15 52:72 53:30 54:6 55:21 56:6 57:24 59:30 60:78 61:45 62:63 63:3 64:57 65:33 66:3 67:24 68:24 69:39 70:24 71:21 72:9 73:9 74:33 76:39 77:54 78:39 79:39 80:150 81:6 82:12 83:78 84:33 85:39 86:9 87:9 88:30 89:33 90:27 #
-2.808828798533431e-005 1:60 2:30 3:21 4:81 5:60 6:39 7:135 8:51 9:21 10:54 11:39 12:126 13:102 14:60 15:30 16:18 17:12 18:18 19:63 20:18 21:21 22:15 23:24 24:9 25:24 26:18 27:33 28:42 29:57 30:9 31:90 32:3 33:141 34:36 35:18 36:12 37:3 38:12 39:12 40:63 41:12 42:48 43:27 44:117 45:90 46:42 47:15 48:78 49:75 50:54 51:18 52:144 53:39 54:12 55:9 56:39 57:30 59:33 60:36 61:69 62:60 63:18 64:51 65:36 66:6 67:48 68:81 69:60 70:24 71:33 72:15 73:30 74:48 75:18 76:51 77:60 78:81 79:21 80:123 81:6 82:33 83:36 84:24 85:39 86:9 87:9 88:24 89:36 90:18 #
-6.5567417127207277e-005 1:42 2:21 3:33 4:54 5:198 6:51 7:51 8:24 9:12 10:57 11:54 12:45 13:12 14:84 15:18 16:27 17:45 18:33 19:21 20:45 21:24 22:27 23:51 24:30 25:36 26:9 27:12 28:3 29:18 30:18 31:30 32:9 33:57 34:75 35:6 36:24 37:3 38:9 39:24 40:18 41:3 42:30 44:30 45:36 46:21 47:18 48:21 49:3 50:48 51:33 52:9 53:33 54:18 55:24 56:24 57:18 58:24 59:9 60:9 62:54 63:21 64:18 65:57 66:9 67:48 68:9 69:144 70:36 71:51 72:18 73:18 74:57 75:90 76:18 77:15 78:6 79:72 80:18 81:54 82:84 83:9 84:78 85:36 86:6 87:3 88:3 90:48 #
4.4859656180846379e-005 1:120 2:18 3:30 4:57 5:93 6:21 7:51 8:81 9:15 10:99 11:54 12:111 13:69 14:36 15:24 16:45 17:11 18:45 19:111 20:36 21:18 22:3 23:57 24:57 25:39 26:45 27:30 28:45 29:66 30:6 31:39 32:6 33:54 34:48 35:9 36:96 37:24 39:15 40:9 42:63 43:3 44:330 45:99 46:18 47:6 48:21 49:12 50:6 51:12 52:54 53:30 54:21 55:24 56:3 57:15 58:3 59:27 60:42 61:21 62:48 63:15 64:9 65:42 66:6 67:6 68:33 69:90 70:28 71:57 72:24 73:6 74:27 75:15 76:36 77:24 78:45 79:33 80:69 81:15 82:102 83:21 84:75 85:42 86:21 87:3 88:6 89:42 90:66 #
5.1722956816508799e-005 1:27 2:48 3:21 4:48 5:183 6:24 7:30 8:24 9:18 10:24 11:33 12:27 13:1 14:57 15:30 16:21 17:38 18:45 19:8 20:12 21:18 22:24 23:45 24:21 25:39 26:18 27:9 28:6 29:37 30:3 31:18 32:15 33:45 34:30 36:18 37:3 38:3 39:27 40:3 41:21 42:15 43:3 44:7 45:21 46:15 47:18 48:12 49:9 50:12 52:24 53:48 54:6 55:12 56:3 57:15 58:9 59:21 60:36 61:3 62:51 63:15 64:6 65:45 66:6 67:36 68:6 69:54 70:37 71:54 72:24 73:6 74:33 75:27 76:6 77:9 78:3 79:57 80:33 81:51 82:24 83:6 84:45 85:22 86:9 87:3 88:3 89:3 90:30 #
-1.1255893672697386e-005 1:75 2:42 3:42 4:108 5:19 6:72 7:129 8:39 9:21 10:186 11:66 12:171 13:177 14:52 15:6 16:36 17:27 18:9 19:216 20:15 21:33 22:3 23:51 24:9 25:24 26:15 27:45 29:159 30:6 31:150 33:120 34:27 35:6 36:30 37:6 38:12 39:30 40:57 41:33 42:87 43:9 44:549 45:279 46:48 47:99 48:117 49:93 50:78 51:105 52:207 53:111 54:24 55:51 56:45 57:99 58:42 59:23 60:93 61:99 63:42 64:105 65:51 66:27 67:21 68:177 69:132 70:12 71:69 72:54 73:39 74:21 75:54 76:54 77:27 78:33 79:21 80:78 81:15 82:93 83:27 84:45 85:45 86:30 87:21 88:6 89:9 90:51 #
-4.9762671379114483e-005 1:96 2:36 3:21 4:21 5:102 6:33 7:51 8:27 9:33 10:117 11:78 12:132 13:171 14:42 15:39 16:63 17:74 18:30 19:125 20:72 21:63 22:27 23:210 24:69 25:96 26:66 27:51 28:51 29:85 30:9 31:39 32:9 33:66 34:27 35:30 36:57 37:12 39:45 40:9 41:36 42:18 43:6 44:485 45:117 46:24 47:3 48:21 49:18 50:3 51:24 52:27 53:59 54:18 55:18 56:9 57:3 58:9 59:57 60:66 61:39 62:18 63:12 64:12 65:15 67:15 68:30 69:45 70:36 71:153 72:18 73:12 74:24 75:30 76:54 77:63 78:36 79:51 80:51 81:30 82:300 83:15 84:102 85:78 86:15 87:6 88:36 89:42 90:90 #
-0.00010236780053745316 1:27 2:24 3:45 4:21 5:174 6:24 7:42 8:27 9:15 10:111 11:30 12:51 13:30 14:111 15:15 16:21 17:36 18:21 19:18 20:33 21:12 22:3 23:18 24:9 25:48 26:27 27:12 28:24 29:54 30:3 31:15 33:39 34:36 35:3 36:33 38:9 39:18 40:6 41:12 42:21 43:9 44:87 45:81 47:27 48:24 49:6 50:63 51:12 52:30 53:30 54:21 55:30 56:24 57:42 58:15 59:15 60:24 61:33 62:99 63:9 64:36 65:54 66:24 67:48 68:12 69:153 70:81 71:54 72:15 73:21 74:33 75:75 76:36 77:18 78:9 79:84 80:27 81:54 82:99 83:3 84:54 85:30 88:3 89:3 90:30 #
6.487619785567502e-005 1:123 2:57 3:6 4:75 5:51 6:84 7:87 8:69 9:42 10:69 11:99 12:87 13:33 14:63 15:51 16:42 17:18 18:9 19:24 20:21 21:15 22:9 23:24 24:12 25:42 26:6 27:21 28:3 29:99 30:9 31:12 33:105 34:15 36:30 37:6 38:9 39:15 40:12 41:3 42:21 43:18 44:21 45:24 46:3 47:9 48:21 49:6 50:36 51:15 52:66 53:45 54:15 55:48 56:36 57:9 58:24 59:15 60:24 61:15 62:87 63:9 64:15 65:36 67:57 68:6 69:78 70:57 71:63 72:3 73:9 74:45 75:39 76:15 77:12 78:27 79:42 80:9 81:15 82:21 83:21 84:39 85:15 87:9 88:3 89:12 90:24 #
-0.00013264684275057805 1:75 2:36 3:9 4:75 5:54 6:36 7:51 8:66 9:27 10:57 11:93 12:60 13:30 14:30 15:27 16:9 17:41 18:39 19:42 20:17 21:6 22:1 23:33 24:21 25:60 26:9 27:6 28:3 29:66 30:9 31:3 32:9 33:66 34:63 35:9 36:51 37:3 38:9 39:3 40:19 41:3 42:15 44:36 45:24 46:36 47:24 48:12 49:27 50:24 51:6 52:15 53:33 54:3 55:9 56:21 57:30 58:12 59:9 60:9 62:90 64:24 65:36 66:27 67:39 68:6 69:39 70:61 71:78 72:9 73:9 74:45 75:15 76:21 77:12 81:33 82:39 84:12 85:45 87:27 89:9 90:27 #
-5.9405434746597559e-005 1:123 2:66 3:12 4:15 5:33 6:27 7:27 8:45 9:18 10:36 11:93 12:66 13:15 14:66 15:6 16:3 17:24 18:39 19:42 20:24 21:6 22:6 23:3 24:51 25:3 26:12 27:24 28:3 29:12 30:6 31:45 33:51 34:9 35:21 36:45 37:12 39:9 40:3 41:6 42:54 44:12 45:42 46:6 48:12 49:3 50:6 51:27 53:24 54:9 55:27 56:6 58:30 59:18 61:3 62:9 63:9 64:3 65:36 66:12 67:3 69:39 70:9 71:15 72:3 73:3 74:21 75:24 76:51 77:30 78:33 79:21 80:30 81:33 82:27 83:21 84:24 85:33 87:3 88:30 89:3 90:48 #
-6.5313523354069869e-005 1:75 2:39 3:3 4:24 5:72 6:57 7:48 8:42 9:12 10:30 11:45 12:84 13:15 14:42 15:27 16:12 17:45 18:9 20:21 21:33 22:6 23:33 24:24 25:27 26:12 27:27 28:9 29:23 31:30 33:60 34:12 35:9 36:57 37:6 39:9 40:36 41:15 42:12 43:12 44:14 45:27 46:15 48:33 49:15 51:15 52:15 53:24 54:15 55:21 56:21 57:15 58:9 59:18 60:15 61:6 62:9 63:12 64:3 65:21 66:12 67:15 68:3 69:6 70:15 71:30 72:15 74:78 75:15 76:51 77:15 78:69 79:24 80:21 81:6 82:24 83:27 84:81 85:11 86:9 87:9 88:36 89:21 90:21 #
-3.6887309726017526e-005 1:54 2:48 3:18 4:72 5:210 6:12 7:33 8:21 9:27 10:36 11:33 12:60 13:3 14:45 15:33 16:24 17:24 18:36 19:14 20:24 21:33 22:15 23:9 24:15 25:66 26:21 27:27 28:15 29:37 30:9 31:12 32:12 33:51 34:45 36:18 37:33 38:18 39:39 41:12 42:36 44:2 45:51 46:9 47:33 48:21 49:3 50:39 51:21 52:21 53:45 54:21 55:30 56:12 57:39 58:48 59:18 60:18 61:12 62:102 63:24 64:6 65:33 66:3 67:81 68:6 69:117 70:90 71:36 72:21 73:24 74:51 75:99 76:42 77:12 78:9 79:69 80:24 81:51 82:3 83:24 84:72 85:43 86:15 87:12 88:3 89:3 90:36 #
-1.8484459691122923e-005 1:75 2:15 3:12 4:48 5:99 6:30 7:39 8:12 10:69 11:36 12:45 13:9 14:42 15:18 16:12 17:24 18:12 19:24 20:36 21:15 22:9 23:30 24:27 25:25 26:24 27:9 28:15 29:39 30:9 31:18 32:27 33:90 34:78 35:24 36:15 37:33 38:12 39:27 40:3 41:18 42:33 44:33 45:105 47:66 48:3 50:21 51:27 52:33 53:45 54:12 55:27 56:30 57:39 58:57 59:12 60:24 61:18 62:42 63:21 64:9 65:48 66:15 67:18 68:27 69:45 70:24 71:72 72:14 74:45 75:57 76:15 77:27 79:9 80:24 81:12 82:24 83:6 84:24 86:6 87:45 89:15 90:57 #
2.3845018813620203e-006 1:60 2:54 3:30 4:93 5:33 6:60 7:162 8:69 9:30 10:78 11:135 12:105 13:45 14:84 15:45 16:39 17:18 18:21 19:75 20:24 21:24 22:6 23:21 24:3 25:33 26:12 27:84 28:24 29:146 30:3 31:81 32:3 33:114 34:45 35:18 36:51 37:9 40:57 41:12 42:93 43:9 44:72 45:69 46:9 48:51 49:3 50:3 51:18 52:33 53:63 54:3 55:12 56:6 57:3 59:30 60:39 61:42 62:57 63:9 64:36 65:42 66:6 67:9 68:21 69:54 70:27 71:12 72:30 73:6 74:3 75:12 76:21 77:39 78:57 79:15 80:96 81:9 82:6 83:18 84:39 85:58 86:3 87:12 88:27 89:33 90:75 #
