SVM-light Version V6.01
0 # kernel type
3 # kernel parameter -d 
1 # kernel parameter -g 
1 # kernel parameter -s 
1 # kernel parameter -r 
empty# kernel parameter -u 
90 # highest feature index 
140 # number of training documents 
25 # number of support vectors plus 1 
1.7437432 # threshold b, each following line is a SV (starting with alpha*y)
9.5343932249326505e-007 1:75 2:54 3:45 4:102 5:33 6:33 7:177 8:15 9:15 10:363 11:60 12:174 13:192 14:72 15:12 16:57 17:17 18:33 19:156 20:24 21:18 22:15 23:156 24:12 25:23 26:21 27:33 28:24 29:81 30:27 31:84 32:9 33:96 34:15 35:18 36:27 37:3 38:12 39:24 40:24 41:39 42:54 43:15 44:489 45:420 46:99 47:75 48:99 49:75 50:153 51:93 52:450 53:66 54:57 55:114 56:75 57:72 58:126 59:60 60:102 61:222 62:27 63:18 64:114 65:15 66:27 67:69 68:168 69:93 70:58 71:39 72:30 73:42 74:36 75:9 76:63 77:36 78:63 79:15 80:78 81:15 82:180 83:33 84:108 85:108 86:15 87:36 88:3 89:27 90:3 #
-7.9645493135004484e-006 1:21 2:24 3:21 4:69 5:12 6:24 7:48 8:24 9:12 10:111 11:72 12:93 13:75 14:18 15:45 16:57 17:81 18:24 19:174 20:78 21:12 22:12 23:45 24:15 25:57 26:9 27:30 28:18 29:87 30:21 31:81 32:24 33:42 34:9 35:84 36:36 37:30 38:12 39:6 40:9 41:15 42:45 43:12 44:129 45:192 46:24 47:51 48:12 49:3 50:129 51:24 52:63 53:51 54:12 55:21 56:21 57:111 58:33 59:18 60:45 61:39 62:57 63:24 64:30 65:21 66:3 67:69 68:105 69:75 70:15 71:42 72:36 73:6 74:6 75:9 76:48 77:39 78:9 79:12 80:33 81:6 82:51 83:3 84:123 85:96 86:9 87:12 88:3 89:6 90:39 #
-6.4332126409606605e-006 1:24 2:18 3:9 4:42 5:30 6:30 7:42 8:12 10:51 11:48 12:78 13:33 14:42 15:9 16:54 17:98 18:15 19:189 20:105 21:15 22:36 23:24 24:21 25:118 26:15 27:9 28:12 29:81 30:27 31:54 32:18 33:42 34:15 35:78 36:3 37:3 38:12 39:30 40:12 41:42 42:18 44:21 45:87 46:27 47:45 48:15 49:21 50:180 51:51 52:60 53:66 54:21 55:48 56:27 57:81 58:27 59:33 60:24 61:69 62:99 63:9 64:21 65:24 66:9 67:48 68:72 69:39 70:68 71:57 72:30 73:3 74:24 75:6 76:51 77:42 78:15 79:18 80:21 81:27 82:27 83:18 84:105 85:96 86:6 87:12 88:9 89:9 90:12 #
-9.452744336618329e-006 1:84 2:57 3:33 4:81 5:48 6:18 7:54 8:84 9:12 10:36 11:108 12:90 13:48 14:51 15:15 16:36 17:20 18:57 19:90 20:18 21:18 22:18 23:30 24:36 25:39 26:24 27:60 28:48 29:93 30:42 31:51 32:6 33:78 34:21 35:12 36:24 37:15 38:18 39:24 40:27 41:3 42:78 44:78 45:42 46:36 47:45 48:42 49:21 50:93 51:39 52:102 53:60 54:12 55:24 56:33 57:57 58:21 59:18 60:21 61:12 62:81 63:27 64:60 65:78 66:12 67:78 68:87 69:42 70:28 71:30 72:9 73:24 74:18 75:12 76:33 77:24 78:51 79:24 80:57 81:33 82:9 83:42 84:36 85:30 86:12 87:12 88:15 89:12 90:6 #
1.9707659756204366e-006 1:51 2:72 3:21 4:42 6:48 7:207 8:51 9:30 10:162 11:51 12:192 13:105 14:72 15:45 16:42 17:63 18:33 19:141 20:27 21:33 22:21 23:51 24:18 25:84 26:15 27:6 29:102 30:15 31:60 32:12 33:150 34:3 36:120 37:12 38:36 39:9 40:45 41:18 42:36 43:15 44:123 45:81 46:96 47:21 48:75 49:66 50:15 51:45 52:120 53:135 54:54 55:69 56:33 57:81 58:36 59:39 60:93 61:30 62:102 63:9 64:24 65:24 67:93 68:33 69:33 70:108 71:120 72:72 73:24 74:21 75:6 76:57 77:33 78:54 79:39 80:81 81:24 82:75 83:60 84:132 85:135 86:18 87:36 88:15 89:27 90:36 #
3.2592358784575511e-005 1:41 2:9 3:9 4:21 5:12 6:3 7:69 8:27 9:18 10:30 11:24 12:57 13:9 14:93 15:3 16:78 17:49 18:36 19:12 20:45 21:39 22:54 23:54 24:85 25:52 26:54 27:27 28:48 29:62 30:3 32:3 33:96 34:3 35:3 36:45 37:30 38:6 39:6 40:42 41:15 42:34 43:12 45:36 46:60 47:12 48:42 49:9 50:3 51:27 52:6 53:54 54:45 55:54 56:57 57:51 58:57 59:30 60:60 61:6 62:9 63:21 65:24 66:3 67:24 68:3 69:6 70:57 71:42 72:24 73:6 74:21 75:9 76:147 77:39 78:33 79:24 80:12 81:15 82:36 83:39 84:228 85:38 86:18 87:36 88:9 89:9 90:24 #
-2.462445531110761e-007 1:60 2:30 3:21 4:81 5:60 6:39 7:135 8:51 9:21 10:54 11:39 12:126 13:102 14:60 15:30 16:18 17:12 18:18 19:63 20:18 21:21 22:15 23:24 24:9 25:24 26:18 27:33 28:42 29:57 30:9 31:90 32:3 33:141 34:36 35:18 36:12 37:3 38:12 39:12 40:63 41:12 42:48 43:27 44:117 45:90 46:42 47:15 48:78 49:75 50:54 51:18 52:144 53:39 54:12 55:9 56:39 57:30 59:33 60:36 61:69 62:60 63:18 64:51 65:36 66:6 67:48 68:81 69:60 70:24 71:33 72:15 73:30 74:48 75:18 76:51 77:60 78:81 79:21 80:123 81:6 82:33 83:36 84:24 85:39 86:9 87:9 88:24 89:36 90:18 #
-2.8352276460790003e-005 2:3 3:15 4:18 5:21 6:9 7:21 9:6 10:24 11:15 12:15 13:30 14:105 15:3 16:39 17:27 18:60 19:60 20:42 21:9 22:9 23:93 24:21 25:39 26:48 27:15 28:18 29:24 30:3 31:12 32:3 33:27 34:3 35:6 36:15 37:9 38:15 39:15 40:15 41:21 42:42 43:6 44:39 45:51 46:51 47:9 48:27 49:6 51:30 52:6 53:15 54:36 55:36 56:57 57:24 58:75 59:39 60:69 61:30 62:6 63:36 64:3 65:30 66:3 68:6 69:27 70:33 71:33 72:12 73:3 74:30 75:18 76:156 77:45 78:30 79:39 80:75 81:33 82:129 83:24 84:180 85:120 86:15 87:24 88:45 89:24 90:60 #
-1.0703273470385941e-005 1:12 2:21 3:18 4:21 5:78 6:9 7:30 8:6 10:57 11:60 12:63 13:36 14:123 15:36 16:27 17:20 18:42 19:42 20:24 21:3 22:9 23:12 24:18 25:27 26:27 27:12 28:18 29:24 30:18 31:21 32:15 33:30 34:30 35:3 36:9 37:21 38:15 39:24 41:9 42:9 43:6 44:39 45:42 46:39 47:15 48:69 49:33 50:51 51:126 52:117 53:129 54:63 55:33 56:51 57:63 58:18 59:57 60:105 61:117 62:216 63:51 64:27 65:81 66:60 67:153 68:99 69:69 70:25 71:27 72:36 73:30 74:78 75:57 76:60 77:12 78:21 79:15 80:15 81:24 82:6 84:120 85:45 86:9 87:6 88:3 89:12 90:15 #
9.5441553734156584e-006 1:75 2:42 3:42 4:108 5:19 6:72 7:129 8:39 9:21 10:186 11:66 12:171 13:177 14:52 15:6 16:36 17:27 18:9 19:216 20:15 21:33 22:3 23:51 24:9 25:24 26:15 27:45 29:159 30:6 31:150 33:120 34:27 35:6 36:30 37:6 38:12 39:30 40:57 41:33 42:87 43:9 44:549 45:279 46:48 47:99 48:117 49:93 50:78 51:105 52:207 53:111 54:24 55:51 56:45 57:99 58:42 59:23 60:93 61:99 63:42 64:105 65:51 66:27 67:21 68:177 69:132 70:12 71:69 72:54 73:39 74:21 75:54 76:54 77:27 78:33 79:21 80:78 81:15 82:93 83:27 84:45 85:45 86:30 87:21 88:6 89:9 90:51 #
1.9048822207802562e-005 1:150 2:84 3:27 4:114 5:21 6:69 7:171 8:144 9:12 10:186 11:99 12:147 13:84 14:111 15:6 16:66 17:26 18:33 19:120 20:63 21:66 22:75 23:156 24:42 25:33 26:30 27:57 28:36 29:72 30:15 31:108 32:6 33:159 34:45 35:57 36:54 37:33 38:17 39:15 40:78 41:42 42:102 43:21 44:240 45:186 46:54 47:33 48:96 49:63 50:99 51:129 52:66 53:69 54:54 55:54 56:48 57:57 58:51 59:63 60:69 61:102 62:66 63:54 64:60 65:42 66:18 67:70 68:66 69:54 70:34 71:48 72:24 73:30 74:39 75:78 76:144 77:69 78:129 79:18 80:102 81:27 82:171 83:81 84:117 85:45 86:48 87:24 88:18 89:57 90:48 #
-1.7116900068228086e-005 1:111 2:72 3:18 4:48 5:96 6:48 7:81 8:45 9:21 10:138 11:111 12:81 13:123 14:63 15:18 16:6 17:59 18:12 19:123 20:24 21:39 22:24 23:132 24:36 25:24 26:9 27:24 28:6 29:27 30:6 31:66 32:18 33:99 34:36 35:18 36:84 37:21 38:24 39:30 40:42 41:51 42:45 43:33 44:399 45:114 46:21 47:81 48:27 49:12 50:57 51:51 52:33 53:42 54:24 55:18 56:45 57:72 58:15 59:15 60:27 61:24 62:24 63:27 64:21 65:51 67:33 68:51 69:78 70:16 71:54 72:3 73:6 74:30 75:60 76:57 77:27 78:51 79:33 80:51 81:12 82:99 83:30 84:96 85:45 86:9 87:36 88:9 89:42 90:78 #
-2.5140407507335317e-005 1:48 2:66 3:3 4:48 5:39 6:75 7:72 8:87 9:3 10:99 11:96 12:96 13:72 14:54 15:6 16:21 17:9 19:108 20:18 21:39 22:6 23:27 24:12 25:39 26:6 27:57 28:24 29:96 30:15 31:57 32:6 33:129 34:27 35:27 36:27 37:15 38:21 39:18 40:57 41:21 42:54 43:27 44:69 45:108 46:72 47:57 48:45 49:60 50:72 51:24 52:177 53:24 54:33 55:3 56:60 57:60 58:6 59:18 60:57 61:84 62:30 63:18 64:84 65:30 66:12 67:30 68:51 69:24 70:30 71:24 72:18 73:21 74:51 75:42 76:36 77:24 78:72 79:15 80:51 82:12 83:54 84:24 85:15 86:9 87:12 88:21 89:42 90:42 #
2.9036189815808932e-005 1:60 2:30 3:30 4:30 5:36 6:18 7:96 8:54 9:12 10:45 11:42 12:66 13:24 14:78 15:6 16:21 17:9 18:15 19:26 20:21 21:18 22:9 23:24 24:15 25:12 26:18 27:21 29:34 30:6 31:15 32:24 33:93 34:39 35:9 36:48 37:24 38:18 39:18 40:45 41:9 42:27 43:30 44:27 45:15 46:39 47:48 48:54 49:33 50:66 51:54 52:36 53:78 54:27 55:27 56:60 57:72 58:81 59:81 60:84 61:6 62:48 63:24 64:30 65:24 66:33 67:57 68:3 69:36 70:27 71:33 72:15 73:9 74:30 75:18 76:66 77:39 78:48 79:9 80:54 81:6 82:9 83:30 84:78 85:54 86:9 87:39 88:21 89:18 90:18 #
-3.8514686499554697e-006 1:75 2:15 3:12 4:48 5:99 6:30 7:39 8:12 10:69 11:36 12:45 13:9 14:42 15:18 16:12 17:24 18:12 19:24 20:36 21:15 22:9 23:30 24:27 25:25 26:24 27:9 28:15 29:39 30:9 31:18 32:27 33:90 34:78 35:24 36:15 37:33 38:12 39:27 40:3 41:18 42:33 44:33 45:105 47:66 48:3 50:21 51:27 52:33 53:45 54:12 55:27 56:30 57:39 58:57 59:12 60:24 61:18 62:42 63:21 64:9 65:48 66:15 67:18 68:27 69:45 70:24 71:72 72:14 74:45 75:57 76:15 77:27 79:9 80:24 81:12 82:24 83:6 84:24 86:6 87:45 89:15 90:57 #
1.3642924838280778e-005 1:21 2:21 3:27 4:15 5:9 6:15 7:9 8:15 9:6 11:39 12:33 13:12 14:66 15:12 16:3 17:6 18:30 19:6 20:7 21:9 22:3 23:3 24:24 25:30 26:3 27:12 28:15 29:39 30:3 31:18 32:18 33:21 34:15 37:9 38:9 39:12 40:6 41:18 42:27 44:3 46:48 47:120 48:33 49:36 50:90 51:84 52:21 53:105 54:9 55:18 56:69 57:117 58:33 59:18 60:42 62:24 63:21 64:33 65:48 66:9 67:63 68:12 69:33 70:42 71:15 72:18 73:18 74:36 75:21 76:33 77:12 78:3 79:33 80:18 81:33 83:3 84:33 85:21 86:6 87:57 89:12 90:12 #
3.072372035979905e-005 1:15 2:33 3:6 4:84 5:9 6:3 7:12 8:12 9:12 11:99 12:96 13:15 14:21 15:9 16:12 18:15 19:72 20:30 21:21 23:6 25:3 26:6 27:45 29:51 30:6 31:27 32:21 33:30 34:21 35:3 36:18 38:24 39:6 40:3 41:12 42:21 43:9 44:39 45:15 46:33 47:192 48:21 49:51 50:99 51:84 52:111 53:66 54:12 55:6 56:36 57:120 58:57 59:6 60:27 61:39 62:18 63:6 64:54 65:33 66:33 67:48 68:72 69:33 70:18 71:30 72:6 73:27 74:27 75:30 76:9 77:33 78:15 79:9 80:51 81:12 83:6 84:12 85:9 87:42 89:6 90:18 #
9.9303970281551896e-007 1:54 2:30 3:15 4:45 5:21 6:24 7:51 8:9 9:9 10:36 11:102 12:96 13:21 14:54 15:3 16:6 17:15 18:18 19:30 20:12 21:3 22:6 23:12 25:15 26:6 27:21 28:15 29:54 30:15 31:57 32:9 33:24 34:15 36:6 37:6 38:12 39:39 40:6 41:30 42:39 43:3 44:24 45:30 46:21 47:90 48:93 49:39 50:138 51:90 52:81 53:117 54:39 55:54 56:33 57:120 58:90 59:21 60:36 61:24 62:66 63:9 64:27 65:39 66:18 67:66 68:33 69:105 70:36 71:39 72:9 73:6 74:6 75:24 76:15 78:12 79:24 80:3 81:3 82:9 83:3 84:27 85:57 86:15 87:12 88:3 89:3 90:33 #
-1.1548888534918656e-005 1:120 2:72 3:15 4:60 5:48 6:51 7:69 8:51 9:9 10:3 11:114 12:105 13:39 14:72 15:6 16:12 17:6 18:9 19:63 20:18 21:12 22:6 23:6 24:9 25:15 26:6 27:63 28:42 29:66 30:6 31:102 32:6 33:84 34:9 35:24 36:33 37:12 38:24 39:3 40:51 41:54 42:114 43:21 44:66 45:15 46:39 47:42 48:69 49:78 50:57 51:21 52:102 53:42 54:15 55:30 56:30 57:48 58:15 59:24 60:39 61:21 62:33 63:15 64:78 65:36 66:12 67:30 68:69 69:60 70:21 71:18 72:24 73:9 74:39 75:21 76:42 77:39 78:99 79:27 80:99 81:15 82:9 83:33 84:45 85:30 86:6 87:12 88:12 89:36 90:39 #
-2.0670143917998785e-005 1:72 2:102 3:18 4:93 5:18 6:27 7:123 8:36 9:27 10:48 11:123 12:75 13:15 14:57 15:27 16:39 17:12 18:48 19:18 20:36 21:18 22:9 23:30 24:6 25:18 26:3 27:54 28:24 29:69 30:21 31:51 32:18 33:99 34:30 35:21 36:12 37:12 38:33 39:15 40:33 41:9 42:63 43:12 44:15 45:27 46:36 47:33 48:12 49:45 50:57 51:45 52:87 53:51 54:21 55:12 56:3 57:51 58:12 59:45 60:69 61:78 62:78 63:39 64:66 65:30 66:6 67:69 68:72 69:33 70:15 71:48 72:24 73:15 74:33 75:69 76:27 77:42 78:39 79:12 80:84 81:6 82:9 83:12 84:66 85:51 86:33 87:48 88:12 89:15 90:12 #
-1.3485263667051866e-005 1:72 2:45 3:24 4:42 5:57 6:21 7:36 8:45 9:9 10:3 11:42 12:96 13:9 14:60 15:12 16:27 17:27 18:87 19:54 20:18 21:24 22:30 23:9 24:81 25:24 26:21 27:15 28:33 29:30 30:6 31:21 32:3 33:84 34:36 35:9 36:27 37:45 38:21 39:6 40:15 41:27 42:36 43:21 44:24 45:18 46:24 47:9 48:24 49:15 50:15 51:30 52:45 53:57 54:15 55:42 56:39 57:12 58:15 59:42 60:24 61:18 62:27 63:21 64:27 65:36 66:27 67:27 68:15 69:33 70:30 71:24 72:6 73:12 74:105 75:45 76:120 77:39 78:9 79:24 80:12 81:39 82:6 83:30 84:60 85:30 86:21 87:18 88:3 89:12 90:21 #
1.1841254381514789e-005 1:72 2:63 3:6 4:45 5:3 6:78 7:108 8:42 9:15 10:51 11:57 12:132 13:33 14:24 15:12 16:33 17:15 18:15 19:75 20:39 21:9 23:9 24:12 25:30 27:45 28:12 29:63 30:18 31:102 32:9 33:87 34:24 35:6 36:15 37:9 38:30 39:12 40:15 41:45 42:54 43:24 44:75 45:69 46:30 47:69 48:105 49:84 50:99 51:63 52:126 53:69 54:3 55:48 56:87 57:51 58:81 60:87 61:69 62:30 63:6 64:78 65:18 66:9 67:45 68:24 69:45 70:25 71:60 72:42 73:15 74:33 75:24 76:15 77:27 78:27 79:6 80:75 83:18 84:54 85:24 86:15 87:15 88:12 89:21 90:12 #
2.6431546494511243e-006 1:24 2:6 3:33 4:6 5:27 6:9 7:30 8:15 9:15 10:12 11:6 12:18 14:105 16:90 17:53 18:207 19:3 20:111 21:9 22:123 23:42 24:258 25:45 26:48 27:15 28:39 29:39 33:99 34:6 35:9 36:21 37:66 39:6 40:9 41:15 42:57 43:9 45:12 46:72 48:18 49:6 51:30 52:12 53:42 54:72 55:24 56:72 57:27 58:81 59:174 60:93 61:12 63:21 64:12 65:12 67:3 69:6 70:40 71:51 72:24 74:27 75:24 76:378 77:42 78:15 79:39 80:33 81:36 82:18 83:21 84:225 85:39 86:27 89:6 90:60 #
1.9755477092770388e-006 1:159 2:84 3:42 4:84 5:33 6:75 7:246 8:129 9:33 10:264 11:111 12:261 13:174 14:105 15:15 16:75 17:22 18:12 19:297 20:39 21:39 22:9 23:198 24:33 25:34 26:15 27:39 28:12 29:67 30:12 31:120 32:12 33:174 34:30 35:18 36:156 37:6 38:14 39:18 40:87 41:18 42:99 43:27 44:237 45:276 46:36 47:67 48:42 49:42 50:84 51:66 52:228 53:102 54:48 55:108 56:36 57:129 58:69 59:42 60:189 61:132 62:24 63:48 64:66 65:36 66:21 67:66 68:174 69:102 70:51 71:60 72:54 73:18 74:15 75:30 76:69 77:75 78:60 79:21 80:72 81:6 82:114 83:69 84:144 85:188 86:27 87:3 88:30 89:39 90:21 #
