SVM-light Version V6.01
0 # kernel type
3 # kernel parameter -d 
1 # kernel parameter -g 
1 # kernel parameter -s 
1 # kernel parameter -r 
empty# kernel parameter -u 
90 # highest feature index 
140 # number of training documents 
35 # number of support vectors plus 1 
1.2306287 # threshold b, each following line is a SV (starting with alpha*y)
-2.5104652751992251e-005 1:87 2:57 3:33 4:54 5:129 6:45 7:72 8:51 9:27 10:75 11:87 12:96 13:60 14:105 15:21 16:57 17:39 18:42 19:57 20:24 21:18 22:6 23:111 24:33 25:45 26:48 27:33 28:30 29:66 30:30 31:45 32:9 33:99 34:81 35:12 36:48 37:33 38:6 39:18 40:24 41:39 42:39 43:21 44:207 45:78 46:9 47:21 48:45 49:9 50:6 51:30 52:57 53:36 54:15 55:48 57:36 58:3 59:24 60:45 61:27 62:54 63:15 64:45 65:48 66:12 67:44 68:39 69:63 70:24 71:74 72:12 73:6 74:48 75:30 76:45 77:33 78:42 79:27 80:84 81:18 82:201 83:9 84:69 85:60 86:12 87:18 88:9 89:12 90:78 #
-3.5566809903773554e-005 1:24 2:18 3:9 4:42 5:30 6:30 7:42 8:12 10:51 11:48 12:78 13:33 14:42 15:9 16:54 17:98 18:15 19:189 20:105 21:15 22:36 23:24 24:21 25:118 26:15 27:9 28:12 29:81 30:27 31:54 32:18 33:42 34:15 35:78 36:3 37:3 38:12 39:30 40:12 41:42 42:18 44:21 45:87 46:27 47:45 48:15 49:21 50:180 51:51 52:60 53:66 54:21 55:48 56:27 57:81 58:27 59:33 60:24 61:69 62:99 63:9 64:21 65:24 66:9 67:48 68:72 69:39 70:68 71:57 72:30 73:3 74:24 75:6 76:51 77:42 78:15 79:18 80:21 81:27 82:27 83:18 84:105 85:96 86:6 87:12 88:9 89:9 90:12 #
2.568589892007959e-005 1:111 2:72 3:18 4:48 5:96 6:48 7:81 8:45 9:21 10:138 11:111 12:81 13:123 14:63 15:18 16:6 17:59 18:12 19:123 20:24 21:39 22:24 23:132 24:36 25:24 26:9 27:24 28:6 29:27 30:6 31:66 32:18 33:99 34:36 35:18 36:84 37:21 38:24 39:30 40:42 41:51 42:45 43:33 44:399 45:114 46:21 47:81 48:27 49:12 50:57 51:51 52:33 53:42 54:24 55:18 56:45 57:72 58:15 59:15 60:27 61:24 62:24 63:27 64:21 65:51 67:33 68:51 69:78 70:16 71:54 72:3 73:6 74:30 75:60 76:57 77:27 78:51 79:33 80:51 81:12 82:99 83:30 84:96 85:45 86:9 87:36 88:9 89:42 90:78 #
-1.2912928846413447e-005 1:42 2:36 3:21 4:39 5:21 6:18 7:12 8:9 9:30 11:27 12:33 13:9 14:42 15:15 16:66 17:52 18:18 19:27 20:54 23:3 25:48 26:15 27:36 28:12 29:81 30:18 31:27 32:15 33:9 34:12 35:45 36:6 37:9 38:18 39:15 40:24 41:36 42:45 43:3 44:6 45:15 46:51 47:87 48:51 49:24 50:96 51:72 52:30 53:99 54:6 55:81 56:141 57:300 58:87 59:12 60:69 61:6 62:21 63:21 64:3 65:21 66:12 67:24 68:24 69:45 70:35 71:42 72:36 73:3 74:39 75:12 76:30 77:15 78:18 79:24 80:36 81:6 82:3 83:27 84:48 85:48 86:9 87:24 88:6 89:3 90:27 #
-8.7084484076880985e-006 1:51 2:3 3:33 4:6 5:30 6:21 7:39 8:39 9:39 10:24 11:24 12:12 13:3 14:78 16:39 17:51 18:63 19:45 20:42 21:9 22:42 23:198 24:84 25:75 26:33 27:60 28:75 29:84 31:21 33:60 34:15 35:30 37:36 39:6 40:15 41:6 42:42 43:12 44:20 45:48 46:21 48:6 49:6 51:9 52:9 53:27 54:21 55:33 56:9 58:3 59:33 60:30 63:6 64:3 65:30 66:6 68:6 69:18 70:45 71:93 72:24 73:3 74:12 75:12 76:120 77:30 78:45 79:69 80:66 81:42 82:396 83:15 84:120 85:162 86:18 88:51 89:27 90:165 #
0.0001194745644852844 1:21 2:24 3:21 4:69 5:12 6:24 7:48 8:24 9:12 10:111 11:72 12:93 13:75 14:18 15:45 16:57 17:81 18:24 19:174 20:78 21:12 22:12 23:45 24:15 25:57 26:9 27:30 28:18 29:87 30:21 31:81 32:24 33:42 34:9 35:84 36:36 37:30 38:12 39:6 40:9 41:15 42:45 43:12 44:129 45:192 46:24 47:51 48:12 49:3 50:129 51:24 52:63 53:51 54:12 55:21 56:21 57:111 58:33 59:18 60:45 61:39 62:57 63:24 64:30 65:21 66:3 67:69 68:105 69:75 70:15 71:42 72:36 73:6 74:6 75:9 76:48 77:39 78:9 79:12 80:33 81:6 82:51 83:3 84:123 85:96 86:9 87:12 88:3 89:6 90:39 #
0.00012841962206824734 1:75 2:15 3:12 4:48 5:99 6:30 7:39 8:12 10:69 11:36 12:45 13:9 14:42 15:18 16:12 17:24 18:12 19:24 20:36 21:15 22:9 23:30 24:27 25:25 26:24 27:9 28:15 29:39 30:9 31:18 32:27 33:90 34:78 35:24 36:15 37:33 38:12 39:27 40:3 41:18 42:33 44:33 45:105 47:66 48:3 50:21 51:27 52:33 53:45 54:12 55:27 56:30 57:39 58:57 59:12 60:24 61:18 62:42 63:21 64:9 65:48 66:15 67:18 68:27 69:45 70:24 71:72 72:14 74:45 75:57 76:15 77:27 79:9 80:24 81:12 82:24 83:6 84:24 86:6 87:45 89:15 90:57 #
6.5103578070254049e-005 1:48 2:66 3:3 4:48 5:39 6:75 7:72 8:87 9:3 10:99 11:96 12:96 13:72 14:54 15:6 16:21 17:9 19:108 20:18 21:39 22:6 23:27 24:12 25:39 26:6 27:57 28:24 29:96 30:15 31:57 32:6 33:129 34:27 35:27 36:27 37:15 38:21 39:18 40:57 41:21 42:54 43:27 44:69 45:108 46:72 47:57 48:45 49:60 50:72 51:24 52:177 53:24 54:33 55:3 56:60 57:60 58:6 59:18 60:57 61:84 62:30 63:18 64:84 65:30 66:12 67:30 68:51 69:24 70:30 71:24 72:18 73:21 74:51 75:42 76:36 77:24 78:72 79:15 80:51 82:12 83:54 84:24 85:15 86:9 87:12 88:21 89:42 90:42 #
-2.9667266967603242e-005 1:126 2:84 3:42 4:174 5:30 6:54 7:135 8:96 9:18 10:345 11:123 12:198 13:159 14:54 15:3 16:21 17:18 18:69 19:177 20:6 21:33 22:15 23:84 24:42 25:21 26:12 27:39 28:6 29:84 31:102 32:3 33:207 34:42 35:9 36:93 37:15 38:9 39:6 40:36 41:42 42:42 43:12 44:351 45:321 46:24 47:3 48:18 49:36 50:12 51:9 52:75 53:21 54:9 55:15 56:15 57:6 58:18 59:15 60:63 61:153 62:12 63:3 64:90 65:45 66:6 68:60 69:33 70:27 71:36 72:21 73:15 74:39 75:15 76:63 77:42 78:81 79:3 80:147 81:12 82:87 83:60 84:12 85:18 86:24 87:6 88:9 89:15 90:48 #
-3.352084645124228e-005 1:57 2:39 3:6 4:69 5:36 6:63 7:78 8:60 9:6 10:126 11:75 12:96 13:66 14:39 15:21 16:6 17:36 19:103 20:27 21:9 23:78 24:3 25:33 26:3 27:36 28:12 29:86 31:78 33:42 34:6 35:12 36:15 37:3 39:6 40:24 41:3 42:33 43:15 44:128 45:183 46:12 47:3 48:18 49:9 50:6 52:51 53:15 55:9 57:3 58:3 59:3 60:15 61:63 62:48 63:6 64:15 65:15 66:27 67:6 68:57 69:57 70:24 71:39 72:15 73:6 74:3 75:3 76:12 77:45 78:15 79:21 80:36 81:18 82:39 83:9 84:69 85:73 86:9 88:9 89:27 90:45 #
-1.4141738421251417e-005 1:105 2:54 3:15 4:78 5:36 6:60 7:63 8:42 9:15 10:36 11:96 12:90 13:27 14:72 15:39 16:45 17:15 18:12 19:42 20:57 21:18 22:3 23:18 24:21 25:57 26:24 27:69 28:45 29:72 30:9 31:90 32:9 33:54 34:36 35:39 36:15 37:12 38:39 39:30 40:21 41:36 42:96 43:9 44:57 45:48 46:45 47:21 48:72 49:39 50:66 51:45 52:84 53:99 54:27 55:12 56:30 57:45 58:6 59:9 60:51 61:30 62:108 63:18 64:81 65:69 66:18 67:57 68:99 69:66 70:33 71:24 72:30 73:51 74:27 75:42 76:24 77:48 78:69 79:18 80:69 81:27 82:9 83:30 84:42 85:54 86:18 87:30 88:15 89:12 90:45 #
0.00015060827654296473 1:120 2:72 3:15 4:60 5:48 6:51 7:69 8:51 9:9 10:3 11:114 12:105 13:39 14:72 15:6 16:12 17:6 18:9 19:63 20:18 21:12 22:6 23:6 24:9 25:15 26:6 27:63 28:42 29:66 30:6 31:102 32:6 33:84 34:9 35:24 36:33 37:12 38:24 39:3 40:51 41:54 42:114 43:21 44:66 45:15 46:39 47:42 48:69 49:78 50:57 51:21 52:102 53:42 54:15 55:30 56:30 57:48 58:15 59:24 60:39 61:21 62:33 63:15 64:78 65:36 66:12 67:30 68:69 69:60 70:21 71:18 72:24 73:9 74:39 75:21 76:42 77:39 78:99 79:27 80:99 81:15 82:9 83:33 84:45 85:30 86:6 87:12 88:12 89:36 90:39 #
-4.3780632710051741e-005 1:111 2:45 3:9 4:93 5:45 6:69 7:63 8:63 9:15 10:42 11:153 12:114 13:15 14:51 15:18 16:33 17:3 18:12 19:60 20:81 21:9 22:6 23:12 24:6 25:33 26:27 27:78 28:48 29:91 30:6 31:111 32:12 33:105 34:39 35:18 36:30 37:12 38:30 39:36 40:24 41:24 42:81 43:24 44:63 45:51 46:45 47:27 48:54 49:48 50:54 51:42 52:60 53:96 54:33 55:15 56:9 57:33 58:18 59:24 60:69 61:39 62:117 63:36 64:78 65:66 66:9 67:66 68:75 69:69 70:27 71:69 72:27 73:30 74:57 75:36 76:12 77:63 78:54 79:18 80:111 81:9 82:3 83:54 84:57 85:51 86:9 87:27 88:18 89:18 90:45 #
-2.3723193670341764e-005 1:81 2:72 3:27 4:78 5:51 6:42 7:36 8:48 9:24 10:33 11:126 12:90 13:48 14:57 15:9 16:30 17:23 18:36 19:45 20:30 21:33 22:12 23:15 24:42 25:51 26:21 27:36 28:63 29:78 30:30 31:72 32:15 33:39 34:3 35:18 36:30 37:18 38:33 39:24 40:27 41:12 42:90 44:54 45:36 46:36 47:60 48:51 49:18 50:90 51:39 52:96 53:72 54:12 55:21 56:24 57:45 58:3 59:27 60:27 61:21 62:108 63:12 64:39 65:51 66:3 67:51 68:96 69:60 70:37 71:54 72:18 73:6 74:36 75:9 76:36 77:36 78:33 79:21 80:48 81:24 82:3 83:36 84:57 85:33 86:24 87:12 88:6 89:18 90:36 #
-2.7168513815711402e-005 1:60 2:42 3:9 4:78 5:15 6:21 7:84 8:21 9:12 10:36 11:75 12:123 13:57 14:27 15:15 16:3 17:3 18:3 19:81 20:24 21:15 22:3 23:12 24:3 25:15 26:3 27:63 28:9 29:57 30:6 31:135 32:12 33:120 34:33 35:6 36:15 38:24 41:18 42:30 43:60 44:99 45:27 46:54 47:126 48:60 49:66 50:102 51:30 52:243 53:81 54:48 55:33 56:6 57:108 58:69 59:21 60:147 61:69 62:15 63:3 64:135 65:30 66:3 67:48 68:141 69:15 70:40 71:39 72:27 73:66 74:6 75:27 76:9 77:48 78:42 79:6 80:42 81:3 82:3 83:30 84:9 85:9 86:6 87:57 89:24 90:12 #
-9.3919322513233709e-006 2:6 3:15 4:3 5:9 11:24 12:3 14:21 16:3 17:6 18:9 19:9 21:9 24:9 25:18 26:6 27:30 28:18 29:6 30:12 31:12 32:12 33:6 34:21 37:18 38:9 40:6 41:12 43:3 46:12 47:144 48:48 49:9 50:357 51:174 52:30 53:105 54:6 55:48 56:129 57:285 58:162 59:39 60:6 62:63 63:15 64:12 65:15 66:18 67:156 68:9 69:18 70:28 71:3 72:6 73:3 74:78 75:27 76:24 79:9 81:6 84:15 85:12 87:51 89:3 90:3 #
-1.089973426463708e-005 1:102 2:72 3:33 4:90 5:54 6:18 7:36 8:66 9:12 10:33 11:102 12:129 13:33 14:60 15:21 16:36 17:38 18:15 19:87 20:42 21:27 22:12 23:9 24:15 25:33 26:12 27:39 28:75 29:87 30:30 31:66 32:24 33:54 34:21 35:30 36:45 37:15 38:24 39:21 40:36 41:12 42:78 43:18 44:153 45:48 46:39 47:27 48:45 49:27 50:69 51:39 52:150 53:84 54:21 55:45 56:30 57:66 58:27 59:36 60:24 61:36 62:135 63:24 64:63 65:63 66:15 67:72 68:111 69:48 70:43 71:51 72:27 73:6 74:33 75:21 76:27 77:18 78:57 79:21 80:63 81:21 82:6 83:27 84:36 85:30 86:9 87:36 88:9 89:9 90:18 #
4.2018759935076526e-005 1:57 2:33 3:15 4:45 5:57 6:39 7:69 8:21 9:3 10:96 11:72 12:81 13:48 14:45 15:18 16:15 17:30 18:12 19:69 20:33 21:24 22:3 23:66 24:27 25:36 26:6 27:45 28:27 29:54 30:51 31:75 32:24 33:102 34:15 35:6 36:54 37:12 38:27 39:9 40:18 41:15 42:87 43:3 44:147 45:75 46:6 47:9 48:9 49:15 50:45 51:18 52:21 53:12 55:6 56:15 57:39 58:3 59:21 60:27 61:18 62:90 63:24 64:21 65:48 66:3 67:102 68:6 69:51 70:33 71:60 72:3 74:15 75:36 76:12 77:21 78:42 79:24 80:48 81:21 82:36 83:12 84:54 85:21 86:12 87:12 88:3 90:48 #
-1.924847973249558e-006 1:24 2:6 3:15 4:27 5:93 6:24 7:21 8:18 9:12 10:36 11:15 12:27 13:9 14:9 15:15 16:45 17:18 18:36 19:6 20:39 21:30 22:27 23:366 24:33 25:48 26:90 27:39 28:36 29:66 31:12 33:84 34:18 35:12 36:33 37:3 39:24 40:3 41:3 42:3 44:3 45:33 46:9 48:9 51:6 52:30 53:21 54:9 55:6 56:9 58:6 59:15 60:24 61:15 62:6 63:6 64:6 65:12 68:3 69:27 70:45 71:39 72:3 73:3 74:9 75:30 76:33 77:12 78:39 79:24 80:15 81:21 82:351 83:6 84:171 85:36 86:9 87:3 88:12 90:69 #
-1.1122656628544052e-005 1:120 2:18 3:30 4:57 5:93 6:21 7:51 8:81 9:15 10:99 11:54 12:111 13:69 14:36 15:24 16:45 17:11 18:45 19:111 20:36 21:18 22:3 23:57 24:57 25:39 26:45 27:30 28:45 29:66 30:6 31:39 32:6 33:54 34:48 35:9 36:96 37:24 39:15 40:9 42:63 43:3 44:330 45:99 46:18 47:6 48:21 49:12 50:6 51:12 52:54 53:30 54:21 55:24 56:3 57:15 58:3 59:27 60:42 61:21 62:48 63:15 64:9 65:42 66:6 67:6 68:33 69:90 70:28 71:57 72:24 73:6 74:27 75:15 76:36 77:24 78:45 79:33 80:69 81:15 82:102 83:21 84:75 85:42 86:21 87:3 88:6 89:42 90:66 #
-4.460110219022746e-005 1:9 2:21 3:6 4:24 5:60 6:18 7:24 8:24 9:18 10:9 11:75 12:12 13:3 14:51 15:12 17:6 18:51 19:114 20:36 21:12 22:6 23:21 24:46 25:21 26:9 27:42 28:21 29:63 30:12 31:45 32:3 33:45 34:15 35:24 36:15 37:6 38:6 39:3 40:6 41:12 42:27 43:3 44:9 45:15 46:6 47:6 48:9 50:9 51:6 52:3 53:27 54:15 55:3 56:6 57:18 58:3 59:9 60:24 61:9 62:45 63:6 65:15 66:12 67:21 68:3 69:45 70:21 71:27 72:3 73:15 74:3 76:24 77:42 78:6 79:9 80:36 81:15 82:9 83:27 84:21 85:30 86:12 87:6 88:3 89:12 90:54 #
-5.6211508075337439e-005 1:123 2:66 3:12 4:15 5:33 6:27 7:27 8:45 9:18 10:36 11:93 12:66 13:15 14:66 15:6 16:3 17:24 18:39 19:42 20:24 21:6 22:6 23:3 24:51 25:3 26:12 27:24 28:3 29:12 30:6 31:45 33:51 34:9 35:21 36:45 37:12 39:9 40:3 41:6 42:54 44:12 45:42 46:6 48:12 49:3 50:6 51:27 53:24 54:9 55:27 56:6 58:30 59:18 61:3 62:9 63:9 64:3 65:36 66:12 67:3 69:39 70:9 71:15 72:3 73:3 74:21 75:24 76:51 77:30 78:33 79:21 80:30 81:33 82:27 83:21 84:24 85:33 87:3 88:30 89:3 90:48 #
-3.4676334218858418e-005 1:60 2:30 3:21 4:81 5:60 6:39 7:135 8:51 9:21 10:54 11:39 12:126 13:102 14:60 15:30 16:18 17:12 18:18 19:63 20:18 21:21 22:15 23:24 24:9 25:24 26:18 27:33 28:42 29:57 30:9 31:90 32:3 33:141 34:36 35:18 36:12 37:3 38:12 39:12 40:63 41:12 42:48 43:27 44:117 45:90 46:42 47:15 48:78 49:75 50:54 51:18 52:144 53:39 54:12 55:9 56:39 57:30 59:33 60:36 61:69 62:60 63:18 64:51 65:36 66:6 67:48 68:81 69:60 70:24 71:33 72:15 73:30 74:48 75:18 76:51 77:60 78:81 79:21 80:123 81:6 82:33 83:36 84:24 85:39 86:9 87:9 88:24 89:36 90:18 #
1.992245782144373e-005 1:90 2:54 3:21 4:48 5:36 6:57 7:54 8:57 9:12 10:27 11:132 12:105 13:24 14:72 15:6 16:9 17:30 18:9 19:33 20:18 21:21 23:15 24:9 25:15 26:3 27:51 28:18 29:30 30:6 31:51 32:3 33:87 34:30 35:12 36:15 37:3 38:18 40:57 41:24 42:120 43:12 44:33 45:15 46:12 47:48 48:48 49:75 50:45 51:15 52:60 53:42 54:12 55:18 56:33 57:39 58:6 59:33 60:48 61:6 62:39 63:3 64:81 65:36 66:3 67:30 68:57 69:87 70:18 71:27 72:30 73:6 74:15 75:9 76:21 77:51 78:69 79:21 80:117 81:12 82:3 83:33 84:30 85:12 86:3 87:9 88:9 89:24 90:60 #
4.3237135197805479e-005 1:36 2:3 3:24 4:30 5:81 6:30 7:9 8:24 10:60 11:51 12:33 13:18 14:39 15:6 16:9 17:51 18:42 19:138 20:15 21:45 22:27 23:60 24:54 25:66 26:36 27:45 28:15 29:24 31:69 33:99 34:45 35:24 36:30 37:27 39:42 40:9 41:3 42:12 44:204 45:132 46:3 51:6 52:18 53:9 54:6 55:6 56:6 59:3 61:6 63:15 65:45 66:15 68:24 69:36 70:45 71:57 72:9 74:3 75:21 76:36 77:21 78:36 79:48 80:33 81:9 82:273 83:27 84:15 85:69 86:12 88:12 89:9 90:135 #
-1.5150349967229776e-005 1:12 2:21 3:6 4:21 5:15 6:6 7:30 8:9 9:12 10:3 11:27 12:99 13:15 14:33 15:12 16:6 17:6 19:15 20:6 21:15 22:15 23:6 24:3 25:15 26:3 27:6 28:6 29:54 30:12 31:6 32:27 33:39 34:21 35:3 36:9 38:33 39:3 40:6 41:15 42:6 43:3 44:15 45:3 46:57 47:206 48:57 49:9 50:123 51:60 52:84 53:69 54:51 55:33 56:120 57:279 58:117 59:18 60:27 61:15 62:3 63:15 64:78 65:33 66:24 67:24 68:42 69:66 70:33 71:23 72:15 73:21 74:48 75:15 76:12 77:6 78:3 79:3 80:15 81:12 82:3 83:6 84:9 85:9 86:6 87:54 89:3 90:3 #
-3.1707253612290091e-005 1:75 2:42 3:42 4:108 5:19 6:72 7:129 8:39 9:21 10:186 11:66 12:171 13:177 14:52 15:6 16:36 17:27 18:9 19:216 20:15 21:33 22:3 23:51 24:9 25:24 26:15 27:45 29:159 30:6 31:150 33:120 34:27 35:6 36:30 37:6 38:12 39:30 40:57 41:33 42:87 43:9 44:549 45:279 46:48 47:99 48:117 49:93 50:78 51:105 52:207 53:111 54:24 55:51 56:45 57:99 58:42 59:23 60:93 61:99 63:42 64:105 65:51 66:27 67:21 68:177 69:132 70:12 71:69 72:54 73:39 74:21 75:54 76:54 77:27 78:33 79:21 80:78 81:15 82:93 83:27 84:45 85:45 86:30 87:21 88:6 89:9 90:51 #
-3.4645303333871629e-005 1:12 2:36 3:9 4:42 5:21 6:30 7:18 8:36 9:12 10:99 11:36 12:63 13:60 14:45 16:18 17:73 18:3 19:155 20:39 21:6 22:9 23:27 24:9 25:64 26:18 27:15 28:21 29:68 30:6 31:39 32:15 33:39 34:12 35:45 37:24 38:3 39:15 40:21 41:6 42:15 43:12 44:67 45:135 46:21 47:63 48:21 50:33 51:36 52:90 53:33 54:3 55:21 56:30 57:45 58:6 59:24 60:36 61:24 62:9 63:6 64:12 65:27 66:27 67:9 68:60 69:21 70:26 71:15 72:45 73:21 74:21 75:15 76:27 77:42 78:18 79:9 80:24 81:3 82:60 83:18 84:87 85:135 86:12 87:15 88:9 89:6 90:27 #
-3.7297656369820954e-006 1:21 2:48 3:9 4:9 5:36 6:21 7:21 8:39 9:9 11:60 12:72 13:3 14:69 15:3 17:6 18:6 19:3 20:3 21:6 25:16 27:9 28:6 29:21 30:33 31:21 32:21 33:18 34:30 35:3 36:12 37:12 38:15 39:6 40:6 41:9 42:3 46:15 47:225 48:102 49:12 50:300 51:150 52:6 53:78 54:18 55:24 56:123 57:186 58:93 59:42 60:3 62:33 63:18 64:21 65:60 66:12 67:204 68:3 69:36 70:22 71:36 72:12 73:30 74:24 75:24 76:18 77:6 78:24 79:6 80:3 81:9 83:9 84:12 85:6 86:3 87:33 89:15 90:6 #
-2.7258889066159874e-005 1:120 2:66 3:6 4:75 5:45 6:60 7:51 8:63 9:12 10:51 11:96 12:78 13:12 14:48 15:21 16:36 17:35 18:18 19:45 20:18 21:21 22:6 23:45 24:3 25:33 26:3 27:36 28:9 29:21 30:6 31:42 32:3 33:60 34:12 36:48 37:21 38:9 40:24 41:6 42:42 44:15 45:39 46:6 47:18 48:6 50:9 51:42 52:9 53:24 54:12 55:15 56:36 57:33 58:21 59:12 60:39 62:21 63:12 64:6 65:36 66:6 67:45 68:3 69:30 70:28 71:24 72:12 73:6 74:78 75:21 76:27 77:45 78:75 79:30 80:33 81:18 82:12 83:30 84:60 85:21 86:12 87:18 88:18 89:21 90:27 #
-1.625804318721935e-005 1:75 2:39 3:3 4:24 5:72 6:57 7:48 8:42 9:12 10:30 11:45 12:84 13:15 14:42 15:27 16:12 17:45 18:9 20:21 21:33 22:6 23:33 24:24 25:27 26:12 27:27 28:9 29:23 31:30 33:60 34:12 35:9 36:57 37:6 39:9 40:36 41:15 42:12 43:12 44:14 45:27 46:15 48:33 49:15 51:15 52:15 53:24 54:15 55:21 56:21 57:15 58:9 59:18 60:15 61:6 62:9 63:12 64:3 65:21 66:12 67:15 68:3 69:6 70:15 71:30 72:15 74:78 75:15 76:51 77:15 78:69 79:24 80:21 81:6 82:24 83:27 84:81 85:11 86:9 87:9 88:36 89:21 90:21 #
-3.4568403142843115e-005 1:42 2:21 3:33 4:54 5:198 6:51 7:51 8:24 9:12 10:57 11:54 12:45 13:12 14:84 15:18 16:27 17:45 18:33 19:21 20:45 21:24 22:27 23:51 24:30 25:36 26:9 27:12 28:3 29:18 30:18 31:30 32:9 33:57 34:75 35:6 36:24 37:3 38:9 39:24 40:18 41:3 42:30 44:30 45:36 46:21 47:18 48:21 49:3 50:48 51:33 52:9 53:33 54:18 55:24 56:24 57:18 58:24 59:9 60:9 62:54 63:21 64:18 65:57 66:9 67:48 68:9 69:144 70:36 71:51 72:18 73:18 74:57 75:90 76:18 77:15 78:6 79:72 80:18 81:54 82:84 83:9 84:78 85:36 86:6 87:3 88:3 90:48 #
-6.0336564188193176e-006 1:15 2:33 3:6 4:84 5:9 6:3 7:12 8:12 9:12 11:99 12:96 13:15 14:21 15:9 16:12 18:15 19:72 20:30 21:21 23:6 25:3 26:6 27:45 29:51 30:6 31:27 32:21 33:30 34:21 35:3 36:18 38:24 39:6 40:3 41:12 42:21 43:9 44:39 45:15 46:33 47:192 48:21 49:51 50:99 51:84 52:111 53:66 54:12 55:6 56:36 57:120 58:57 59:6 60:27 61:39 62:18 63:6 64:54 65:33 66:33 67:48 68:72 69:33 70:18 71:30 72:6 73:27 74:27 75:30 76:9 77:33 78:15 79:9 80:51 81:12 83:6 84:12 85:9 87:42 89:6 90:18 #
-1.9954811274940172e-006 1:150 2:84 3:27 4:114 5:21 6:69 7:171 8:144 9:12 10:186 11:99 12:147 13:84 14:111 15:6 16:66 17:26 18:33 19:120 20:63 21:66 22:75 23:156 24:42 25:33 26:30 27:57 28:36 29:72 30:15 31:108 32:6 33:159 34:45 35:57 36:54 37:33 38:17 39:15 40:78 41:42 42:102 43:21 44:240 45:186 46:54 47:33 48:96 49:63 50:99 51:129 52:66 53:69 54:54 55:54 56:48 57:57 58:51 59:63 60:69 61:102 62:66 63:54 64:60 65:42 66:18 67:70 68:66 69:54 70:34 71:48 72:24 73:30 74:39 75:78 76:144 77:69 78:129 79:18 80:102 81:27 82:171 83:81 84:117 85:45 86:48 87:24 88:18 89:57 90:48 #
