SVM-light Version V6.01
0 # kernel type
3 # kernel parameter -d 
1 # kernel parameter -g 
1 # kernel parameter -s 
1 # kernel parameter -r 
empty# kernel parameter -u 
90 # highest feature index 
140 # number of training documents 
33 # number of support vectors plus 1 
1.1923201 # threshold b, each following line is a SV (starting with alpha*y)
1.9721930567331142e-005 1:84 2:57 3:33 4:81 5:48 6:18 7:54 8:84 9:12 10:36 11:108 12:90 13:48 14:51 15:15 16:36 17:20 18:57 19:90 20:18 21:18 22:18 23:30 24:36 25:39 26:24 27:60 28:48 29:93 30:42 31:51 32:6 33:78 34:21 35:12 36:24 37:15 38:18 39:24 40:27 41:3 42:78 44:78 45:42 46:36 47:45 48:42 49:21 50:93 51:39 52:102 53:60 54:12 55:24 56:33 57:57 58:21 59:18 60:21 61:12 62:81 63:27 64:60 65:78 66:12 67:78 68:87 69:42 70:28 71:30 72:9 73:24 74:18 75:12 76:33 77:24 78:51 79:24 80:57 81:33 82:9 83:42 84:36 85:30 86:12 87:12 88:15 89:12 90:6 #
-4.7193342818188666e-005 1:120 2:18 3:30 4:57 5:93 6:21 7:51 8:81 9:15 10:99 11:54 12:111 13:69 14:36 15:24 16:45 17:11 18:45 19:111 20:36 21:18 22:3 23:57 24:57 25:39 26:45 27:30 28:45 29:66 30:6 31:39 32:6 33:54 34:48 35:9 36:96 37:24 39:15 40:9 42:63 43:3 44:330 45:99 46:18 47:6 48:21 49:12 50:6 51:12 52:54 53:30 54:21 55:24 56:3 57:15 58:3 59:27 60:42 61:21 62:48 63:15 64:9 65:42 66:6 67:6 68:33 69:90 70:28 71:57 72:24 73:6 74:27 75:15 76:36 77:24 78:45 79:33 80:69 81:15 82:102 83:21 84:75 85:42 86:21 87:3 88:6 89:42 90:66 #
3.1701934423078126e-005 1:33 2:18 3:18 4:66 5:42 6:15 7:57 8:21 9:12 10:33 11:57 12:57 13:42 14:51 15:15 16:45 17:117 18:27 19:159 20:102 21:21 22:15 23:24 24:27 25:111 26:12 27:33 28:12 29:82 30:24 31:99 32:18 33:45 34:33 35:78 36:3 37:3 38:15 39:24 40:15 41:6 42:57 43:18 44:27 45:72 46:39 47:33 48:27 49:21 50:135 51:42 52:81 53:99 54:33 55:61 56:6 57:48 58:18 59:30 60:39 61:117 62:93 63:27 64:18 65:12 66:18 67:57 68:60 69:45 70:66 71:45 72:37 73:15 74:12 75:12 76:30 77:54 78:15 79:12 80:42 81:24 82:15 83:9 84:90 85:108 86:15 87:30 88:12 89:9 90:27 #
8.8454675906774144e-005 1:81 2:72 3:27 4:78 5:51 6:42 7:36 8:48 9:24 10:33 11:126 12:90 13:48 14:57 15:9 16:30 17:23 18:36 19:45 20:30 21:33 22:12 23:15 24:42 25:51 26:21 27:36 28:63 29:78 30:30 31:72 32:15 33:39 34:3 35:18 36:30 37:18 38:33 39:24 40:27 41:12 42:90 44:54 45:36 46:36 47:60 48:51 49:18 50:90 51:39 52:96 53:72 54:12 55:21 56:24 57:45 58:3 59:27 60:27 61:21 62:108 63:12 64:39 65:51 66:3 67:51 68:96 69:60 70:37 71:54 72:18 73:6 74:36 75:9 76:36 77:36 78:33 79:21 80:48 81:24 82:3 83:36 84:57 85:33 86:24 87:12 88:6 89:18 90:36 #
-9.8122236274689125e-006 1:60 2:54 3:30 4:93 5:33 6:60 7:162 8:69 9:30 10:78 11:135 12:105 13:45 14:84 15:45 16:39 17:18 18:21 19:75 20:24 21:24 22:6 23:21 24:3 25:33 26:12 27:84 28:24 29:146 30:3 31:81 32:3 33:114 34:45 35:18 36:51 37:9 40:57 41:12 42:93 43:9 44:72 45:69 46:9 48:51 49:3 50:3 51:18 52:33 53:63 54:3 55:12 56:6 57:3 59:30 60:39 61:42 62:57 63:9 64:36 65:42 66:6 67:9 68:21 69:54 70:27 71:12 72:30 73:6 74:3 75:12 76:21 77:39 78:57 79:15 80:96 81:9 82:6 83:18 84:39 85:58 86:3 87:12 88:27 89:33 90:75 #
-3.7722050697136309e-006 1:48 2:66 3:3 4:48 5:39 6:75 7:72 8:87 9:3 10:99 11:96 12:96 13:72 14:54 15:6 16:21 17:9 19:108 20:18 21:39 22:6 23:27 24:12 25:39 26:6 27:57 28:24 29:96 30:15 31:57 32:6 33:129 34:27 35:27 36:27 37:15 38:21 39:18 40:57 41:21 42:54 43:27 44:69 45:108 46:72 47:57 48:45 49:60 50:72 51:24 52:177 53:24 54:33 55:3 56:60 57:60 58:6 59:18 60:57 61:84 62:30 63:18 64:84 65:30 66:12 67:30 68:51 69:24 70:30 71:24 72:18 73:21 74:51 75:42 76:36 77:24 78:72 79:15 80:51 82:12 83:54 84:24 85:15 86:9 87:12 88:21 89:42 90:42 #
-0.00011940804996917378 1:51 2:45 3:3 4:75 5:27 6:51 7:42 8:18 9:12 10:84 11:87 12:66 13:60 14:39 15:9 16:45 17:74 18:33 19:186 20:87 22:9 23:15 24:18 25:69 26:18 27:9 28:24 29:69 30:36 31:93 32:6 33:45 34:6 35:57 36:3 37:15 38:9 39:9 40:12 41:12 42:18 43:9 44:147 45:150 46:21 47:24 48:24 49:18 50:132 51:33 52:63 53:69 54:30 55:51 56:6 57:27 58:21 59:15 60:39 61:87 62:141 63:27 64:48 65:42 66:27 67:84 68:153 69:69 70:28 71:45 72:21 73:18 74:24 75:27 76:57 77:78 78:27 79:6 80:36 81:18 82:57 83:15 84:75 85:99 86:3 87:18 88:12 90:36 #
-1.4322362343754301e-005 1:12 2:36 3:9 4:42 5:21 6:30 7:18 8:36 9:12 10:99 11:36 12:63 13:60 14:45 16:18 17:73 18:3 19:155 20:39 21:6 22:9 23:27 24:9 25:64 26:18 27:15 28:21 29:68 30:6 31:39 32:15 33:39 34:12 35:45 37:24 38:3 39:15 40:21 41:6 42:15 43:12 44:67 45:135 46:21 47:63 48:21 50:33 51:36 52:90 53:33 54:3 55:21 56:30 57:45 58:6 59:24 60:36 61:24 62:9 63:6 64:12 65:27 66:27 67:9 68:60 69:21 70:26 71:15 72:45 73:21 74:21 75:15 76:27 77:42 78:18 79:9 80:24 81:3 82:60 83:18 84:87 85:135 86:12 87:15 88:9 89:6 90:27 #
0.00013030524036204127 1:72 2:45 3:24 4:42 5:57 6:21 7:36 8:45 9:9 10:3 11:42 12:96 13:9 14:60 15:12 16:27 17:27 18:87 19:54 20:18 21:24 22:30 23:9 24:81 25:24 26:21 27:15 28:33 29:30 30:6 31:21 32:3 33:84 34:36 35:9 36:27 37:45 38:21 39:6 40:15 41:27 42:36 43:21 44:24 45:18 46:24 47:9 48:24 49:15 50:15 51:30 52:45 53:57 54:15 55:42 56:39 57:12 58:15 59:42 60:24 61:18 62:27 63:21 64:27 65:36 66:27 67:27 68:15 69:33 70:30 71:24 72:6 73:12 74:105 75:45 76:120 77:39 78:9 79:24 80:12 81:39 82:6 83:30 84:60 85:30 86:21 87:18 88:3 89:12 90:21 #
-1.6359126775407911e-005 1:33 2:60 3:45 4:33 5:24 6:6 7:51 8:27 9:15 10:9 11:60 12:114 13:39 14:69 15:15 16:90 17:39 18:24 19:105 20:123 21:18 22:21 23:6 24:24 25:85 26:9 27:15 28:27 29:114 30:9 31:105 32:39 33:33 34:66 35:90 36:15 37:36 38:18 39:30 40:9 41:30 42:21 43:33 44:39 45:21 46:42 47:111 48:99 49:42 50:165 51:177 52:276 53:258 54:89 55:120 56:123 57:132 58:207 59:54 60:135 61:177 62:66 63:45 64:45 65:51 66:57 67:60 68:138 69:81 70:105 71:84 72:74 73:36 74:78 75:42 76:57 77:45 78:24 79:42 80:24 81:18 83:18 84:91 85:48 86:6 87:12 89:18 90:27 #
-2.3158604741356849e-005 1:15 2:33 3:6 4:84 5:9 6:3 7:12 8:12 9:12 11:99 12:96 13:15 14:21 15:9 16:12 18:15 19:72 20:30 21:21 23:6 25:3 26:6 27:45 29:51 30:6 31:27 32:21 33:30 34:21 35:3 36:18 38:24 39:6 40:3 41:12 42:21 43:9 44:39 45:15 46:33 47:192 48:21 49:51 50:99 51:84 52:111 53:66 54:12 55:6 56:36 57:120 58:57 59:6 60:27 61:39 62:18 63:6 64:54 65:33 66:33 67:48 68:72 69:33 70:18 71:30 72:6 73:27 74:27 75:30 76:9 77:33 78:15 79:9 80:51 81:12 83:6 84:12 85:9 87:42 89:6 90:18 #
4.0667422740722008e-005 1:39 2:18 3:15 4:93 5:42 6:39 7:39 8:24 9:21 10:54 11:90 12:39 13:18 14:81 15:24 16:33 17:12 18:102 19:138 20:72 21:12 22:12 23:42 24:27 25:54 26:12 27:36 28:30 29:72 30:9 31:84 32:15 33:63 34:15 35:21 36:27 37:3 38:15 39:21 40:6 41:15 42:69 43:12 44:9 45:45 46:18 47:15 48:9 49:9 50:12 51:15 52:15 53:30 54:9 55:12 56:9 57:21 58:12 59:24 60:63 61:30 62:30 63:18 64:9 65:33 66:12 67:24 68:12 69:63 70:36 71:21 72:12 73:12 74:3 75:21 76:84 77:33 78:39 79:21 80:54 81:15 82:9 83:18 84:57 85:51 86:15 87:9 88:6 89:27 90:33 #
-7.2753837543941048e-005 1:27 2:48 3:21 4:48 5:183 6:24 7:30 8:24 9:18 10:24 11:33 12:27 13:1 14:57 15:30 16:21 17:38 18:45 19:8 20:12 21:18 22:24 23:45 24:21 25:39 26:18 27:9 28:6 29:37 30:3 31:18 32:15 33:45 34:30 36:18 37:3 38:3 39:27 40:3 41:21 42:15 43:3 44:7 45:21 46:15 47:18 48:12 49:9 50:12 52:24 53:48 54:6 55:12 56:3 57:15 58:9 59:21 60:36 61:3 62:51 63:15 64:6 65:45 66:6 67:36 68:6 69:54 70:37 71:54 72:24 73:6 74:33 75:27 76:6 77:9 78:3 79:57 80:33 81:51 82:24 83:6 84:45 85:22 86:9 87:3 88:3 89:3 90:30 #
-4.4932828465825337e-005 1:24 2:6 3:33 4:6 5:27 6:9 7:30 8:15 9:15 10:12 11:6 12:18 14:105 16:90 17:53 18:207 19:3 20:111 21:9 22:123 23:42 24:258 25:45 26:48 27:15 28:39 29:39 33:99 34:6 35:9 36:21 37:66 39:6 40:9 41:15 42:57 43:9 45:12 46:72 48:18 49:6 51:30 52:12 53:42 54:72 55:24 56:72 57:27 58:81 59:174 60:93 61:12 63:21 64:12 65:12 67:3 69:6 70:40 71:51 72:24 74:27 75:24 76:378 77:42 78:15 79:39 80:33 81:36 82:18 83:21 84:225 85:39 86:27 89:6 90:60 #
-1.3230299742521528e-006 1:87 2:75 3:12 4:78 5:66 6:27 7:54 8:78 9:12 10:168 11:123 12:144 13:42 14:51 15:3 16:15 17:42 18:21 19:192 20:66 21:24 22:3 23:63 24:27 25:54 26:3 27:33 28:39 29:36 30:12 31:171 32:3 33:207 34:102 35:66 36:135 37:27 38:12 39:45 40:33 41:9 42:87 43:21 44:294 45:198 46:3 47:30 48:12 50:24 51:21 52:27 53:33 54:3 55:21 56:9 57:21 58:9 59:12 60:54 61:24 62:27 63:21 64:15 65:39 66:27 67:24 68:15 69:12 70:45 71:45 72:12 73:9 74:3 75:18 76:30 77:51 78:36 79:12 80:75 81:36 82:183 83:33 84:42 85:60 86:18 88:27 89:33 90:90 #
-4.5248193263871389e-005 1:90 2:66 3:3 4:39 5:39 6:42 7:18 8:51 9:18 10:21 11:90 12:72 13:9 14:66 15:21 16:3 17:48 18:33 19:48 20:24 22:15 23:3 24:39 25:36 26:9 27:24 28:3 29:27 30:3 31:63 33:42 34:9 35:3 36:33 37:6 38:6 40:12 41:12 42:39 43:6 44:9 45:9 46:6 47:3 51:15 53:18 54:6 55:27 56:3 57:12 58:27 59:21 61:9 62:3 63:6 64:12 65:36 66:3 67:3 68:6 69:39 70:24 71:18 74:21 75:18 76:45 77:18 78:54 79:42 80:51 81:12 82:15 83:30 84:30 85:24 86:9 87:6 88:33 89:21 90:54 #
4.993967632569131e-005 1:96 2:36 3:21 4:21 5:102 6:33 7:51 8:27 9:33 10:117 11:78 12:132 13:171 14:42 15:39 16:63 17:74 18:30 19:125 20:72 21:63 22:27 23:210 24:69 25:96 26:66 27:51 28:51 29:85 30:9 31:39 32:9 33:66 34:27 35:30 36:57 37:12 39:45 40:9 41:36 42:18 43:6 44:485 45:117 46:24 47:3 48:21 49:18 50:3 51:24 52:27 53:59 54:18 55:18 56:9 57:3 58:9 59:57 60:66 61:39 62:18 63:12 64:12 65:15 67:15 68:30 69:45 70:36 71:153 72:18 73:12 74:24 75:30 76:54 77:63 78:36 79:51 80:51 81:30 82:300 83:15 84:102 85:78 86:15 87:6 88:36 89:42 90:90 #
4.9946667626940012e-005 1:24 2:18 3:9 4:42 5:30 6:30 7:42 8:12 10:51 11:48 12:78 13:33 14:42 15:9 16:54 17:98 18:15 19:189 20:105 21:15 22:36 23:24 24:21 25:118 26:15 27:9 28:12 29:81 30:27 31:54 32:18 33:42 34:15 35:78 36:3 37:3 38:12 39:30 40:12 41:42 42:18 44:21 45:87 46:27 47:45 48:15 49:21 50:180 51:51 52:60 53:66 54:21 55:48 56:27 57:81 58:27 59:33 60:24 61:69 62:99 63:9 64:21 65:24 66:9 67:48 68:72 69:39 70:68 71:57 72:30 73:3 74:24 75:6 76:51 77:42 78:15 79:18 80:21 81:27 82:27 83:18 84:105 85:96 86:6 87:12 88:9 89:9 90:12 #
-9.1270381676407817e-005 1:75 2:36 3:9 4:75 5:54 6:36 7:51 8:66 9:27 10:57 11:93 12:60 13:30 14:30 15:27 16:9 17:41 18:39 19:42 20:17 21:6 22:1 23:33 24:21 25:60 26:9 27:6 28:3 29:66 30:9 31:3 32:9 33:66 34:63 35:9 36:51 37:3 38:9 39:3 40:19 41:3 42:15 44:36 45:24 46:36 47:24 48:12 49:27 50:24 51:6 52:15 53:33 54:3 55:9 56:21 57:30 58:12 59:9 60:9 62:90 64:24 65:36 66:27 67:39 68:6 69:39 70:61 71:78 72:9 73:9 74:45 75:15 76:21 77:12 81:33 82:39 84:12 85:45 87:27 89:9 90:27 #
-1.2275072607387415e-005 1:54 2:99 3:30 4:57 5:24 6:18 7:54 8:72 10:3 11:135 12:186 13:30 14:60 15:24 16:30 17:9 18:21 19:96 20:45 21:12 22:6 23:21 24:3 25:9 26:9 27:45 28:36 29:156 30:9 31:51 32:45 33:63 34:84 35:33 36:33 37:15 38:53 39:24 40:6 41:18 42:24 43:42 44:18 45:3 46:96 47:180 48:174 49:72 50:204 51:213 52:414 53:348 54:105 55:276 56:138 57:246 58:189 59:75 60:156 61:27 62:33 63:63 64:81 65:45 66:33 67:91 68:138 69:51 70:63 71:66 72:72 73:54 74:81 75:45 76:45 77:27 78:45 79:27 80:15 81:21 82:6 83:12 84:138 85:39 86:6 87:93 88:6 89:39 90:30 #
1.5500603267443125e-005 1:24 2:9 4:6 5:90 6:12 7:21 8:6 9:15 10:45 11:15 12:6 14:45 15:15 16:36 17:45 18:72 20:45 21:15 22:12 23:333 24:34 25:24 26:69 27:18 28:24 29:72 30:3 31:9 33:72 34:18 35:15 36:3 37:15 39:42 40:12 41:6 42:3 43:3 45:33 46:21 48:9 49:3 51:6 52:9 53:27 54:21 55:27 56:9 58:15 59:30 60:33 62:3 63:9 65:12 69:27 70:12 71:51 72:6 74:9 75:39 76:71 77:48 78:36 79:30 80:15 81:21 82:615 84:96 85:21 86:6 87:3 88:9 89:6 90:36 #
-2.8540781802698918e-005 1:51 2:3 3:33 4:6 5:30 6:21 7:39 8:39 9:39 10:24 11:24 12:12 13:3 14:78 16:39 17:51 18:63 19:45 20:42 21:9 22:42 23:198 24:84 25:75 26:33 27:60 28:75 29:84 31:21 33:60 34:15 35:30 37:36 39:6 40:15 41:6 42:42 43:12 44:20 45:48 46:21 48:6 49:6 51:9 52:9 53:27 54:21 55:33 56:9 58:3 59:33 60:30 63:6 64:3 65:30 66:6 68:6 69:18 70:45 71:93 72:24 73:3 74:12 75:12 76:120 77:30 78:45 79:69 80:66 81:42 82:396 83:15 84:120 85:162 86:18 88:51 89:27 90:165 #
-1.1686387592192848e-006 1:51 2:33 3:18 4:87 5:30 6:57 7:30 8:24 9:24 10:114 11:78 12:75 13:54 14:24 15:6 16:66 17:56 18:27 19:255 20:102 22:24 23:30 24:21 25:42 26:27 27:18 28:18 29:51 30:12 31:69 32:12 33:27 34:6 35:30 37:18 38:6 39:12 40:15 41:36 42:27 43:24 44:153 45:186 46:24 47:18 48:39 49:27 50:120 51:27 52:63 53:90 54:18 55:60 56:15 57:66 58:18 59:24 60:69 61:135 62:165 63:15 64:54 65:39 66:24 67:69 68:102 69:81 70:49 71:72 72:26 73:18 74:21 75:21 76:60 77:42 78:27 79:12 80:63 81:27 82:12 83:12 84:108 85:63 86:3 87:9 88:12 89:3 90:36 #
-1.5786578881807416e-005 1:12 2:3 3:9 4:15 5:48 6:12 7:33 8:21 9:9 10:12 11:24 12:18 13:6 14:129 15:6 16:21 17:9 18:78 19:21 20:33 21:18 22:6 23:30 24:33 25:33 26:57 27:39 28:30 29:51 31:27 33:39 34:12 35:6 36:18 37:30 39:12 41:15 42:6 43:6 44:3 45:45 46:3 48:18 49:9 51:24 53:30 54:12 55:21 56:33 58:30 59:21 60:6 61:9 63:18 65:30 66:3 68:6 69:24 70:27 71:24 74:27 75:6 76:99 77:6 78:36 79:39 80:39 81:39 82:66 83:18 84:48 85:42 86:9 88:15 89:9 90:48 #
0.00010300543428036718 1:24 2:33 3:6 4:57 5:60 6:36 7:57 8:30 9:12 10:78 11:84 12:69 13:27 14:57 15:27 16:27 17:33 18:78 19:105 20:51 21:24 22:5 23:51 24:25 25:69 26:12 27:36 28:12 29:81 30:3 31:57 33:66 34:18 35:30 36:24 37:9 38:15 39:9 40:15 41:18 42:41 44:18 45:42 46:18 47:9 48:12 50:18 51:3 52:12 53:30 54:18 55:15 56:6 57:21 58:6 59:18 60:42 61:21 62:48 63:15 64:15 65:18 66:15 67:45 68:24 69:48 70:30 71:36 72:12 73:6 74:15 75:18 76:48 77:48 78:21 79:15 80:39 81:24 82:24 83:27 84:42 85:36 86:9 87:9 88:6 89:9 90:51 #
6.2967158431448294e-005 1:9 2:21 3:6 4:24 5:60 6:18 7:24 8:24 9:18 10:9 11:75 12:12 13:3 14:51 15:12 17:6 18:51 19:114 20:36 21:12 22:6 23:21 24:46 25:21 26:9 27:42 28:21 29:63 30:12 31:45 32:3 33:45 34:15 35:24 36:15 37:6 38:6 39:3 40:6 41:12 42:27 43:3 44:9 45:15 46:6 47:6 48:9 50:9 51:6 52:3 53:27 54:15 55:3 56:6 57:18 58:3 59:9 60:24 61:9 62:45 63:6 65:15 66:12 67:21 68:3 69:45 70:21 71:27 72:3 73:15 74:3 76:24 77:42 78:6 79:9 80:36 81:15 82:9 83:27 84:21 85:30 86:12 87:6 88:3 89:12 90:54 #
-4.8822382621531153e-005 1:120 2:72 3:15 4:60 5:48 6:51 7:69 8:51 9:9 10:3 11:114 12:105 13:39 14:72 15:6 16:12 17:6 18:9 19:63 20:18 21:12 22:6 23:6 24:9 25:15 26:6 27:63 28:42 29:66 30:6 31:102 32:6 33:84 34:9 35:24 36:33 37:12 38:24 39:3 40:51 41:54 42:114 43:21 44:66 45:15 46:39 47:42 48:69 49:78 50:57 51:21 52:102 53:42 54:15 55:30 56:30 57:48 58:15 59:24 60:39 61:21 62:33 63:15 64:78 65:36 66:12 67:30 68:69 69:60 70:21 71:18 72:24 73:9 74:39 75:21 76:42 77:39 78:99 79:27 80:99 81:15 82:9 83:33 84:45 85:30 86:6 87:12 88:12 89:36 90:39 #
-3.8294768497238756e-005 1:105 2:54 3:15 4:78 5:36 6:60 7:63 8:42 9:15 10:36 11:96 12:90 13:27 14:72 15:39 16:45 17:15 18:12 19:42 20:57 21:18 22:3 23:18 24:21 25:57 26:24 27:69 28:45 29:72 30:9 31:90 32:9 33:54 34:36 35:39 36:15 37:12 38:39 39:30 40:21 41:36 42:96 43:9 44:57 45:48 46:45 47:21 48:72 49:39 50:66 51:45 52:84 53:99 54:27 55:12 56:30 57:45 58:6 59:9 60:51 61:30 62:108 63:18 64:81 65:69 66:18 67:57 68:99 69:66 70:33 71:24 72:30 73:51 74:27 75:42 76:24 77:48 78:69 79:18 80:69 81:27 82:9 83:30 84:42 85:54 86:18 87:30 88:15 89:12 90:45 #
-1.9021819948847605e-005 1:81 2:48 3:27 4:39 5:27 6:33 7:69 8:96 9:12 10:45 11:111 12:132 13:24 14:60 15:27 16:21 17:15 18:15 19:63 20:15 21:9 22:3 23:21 24:6 25:27 26:6 27:30 28:24 29:60 30:12 31:45 32:12 33:72 34:18 35:12 36:42 37:9 38:9 39:3 40:66 41:24 42:48 44:15 45:36 46:30 47:15 48:66 49:81 50:36 51:15 52:72 53:30 54:6 55:21 56:6 57:24 59:30 60:78 61:45 62:63 63:3 64:57 65:33 66:3 67:24 68:24 69:39 70:24 71:21 72:9 73:9 74:33 76:39 77:54 78:39 79:39 80:150 81:6 82:12 83:78 84:33 85:39 86:9 87:9 88:30 89:33 90:27 #
0.00011527815026460788 1:102 2:72 3:33 4:90 5:54 6:18 7:36 8:66 9:12 10:33 11:102 12:129 13:33 14:60 15:21 16:36 17:38 18:15 19:87 20:42 21:27 22:12 23:9 24:15 25:33 26:12 27:39 28:75 29:87 30:30 31:66 32:24 33:54 34:21 35:30 36:45 37:15 38:24 39:21 40:36 41:12 42:78 43:18 44:153 45:48 46:39 47:27 48:45 49:27 50:69 51:39 52:150 53:84 54:21 55:45 56:30 57:66 58:27 59:36 60:24 61:36 62:135 63:24 64:63 65:63 66:15 67:72 68:111 69:48 70:43 71:51 72:27 73:6 74:33 75:21 76:27 77:18 78:57 79:21 80:63 81:21 82:6 83:27 84:36 85:30 86:9 87:36 88:9 89:9 90:18 #
-6.595668946670762e-005 1:57 2:33 3:15 4:45 5:57 6:39 7:69 8:21 9:3 10:96 11:72 12:81 13:48 14:45 15:18 16:15 17:30 18:12 19:69 20:33 21:24 22:3 23:66 24:27 25:36 26:6 27:45 28:27 29:54 30:51 31:75 32:24 33:102 34:15 35:6 36:54 37:12 38:27 39:9 40:18 41:15 42:87 43:3 44:147 45:75 46:6 47:9 48:9 49:15 50:45 51:18 52:21 53:12 55:6 56:15 57:39 58:3 59:21 60:27 61:18 62:90 63:24 64:21 65:48 66:3 67:102 68:6 69:51 70:33 71:60 72:3 74:15 75:36 76:12 77:21 78:42 79:24 80:48 81:21 82:36 83:12 84:54 85:21 86:12 87:12 88:3 90:48 #
1.1932024658355456e-005 1:18 2:15 3:12 4:21 5:81 6:21 7:12 8:21 9:12 10:39 11:30 12:33 13:6 14:6 15:12 16:66 17:39 18:57 19:6 20:30 21:24 22:30 23:342 24:48 25:51 26:105 27:36 28:18 29:39 31:6 33:99 34:9 35:3 36:30 37:6 39:24 41:3 42:3 44:3 45:18 46:6 48:6 51:15 52:15 53:18 54:9 55:9 56:3 58:12 59:3 60:78 61:27 63:3 65:9 66:3 69:24 70:18 71:39 72:3 73:6 74:6 75:15 76:27 77:39 78:48 79:30 80:15 81:18 82:261 83:9 84:219 85:42 86:18 88:18 90:78 #
