SVM-light Version V6.01
0 # kernel type
3 # kernel parameter -d 
1 # kernel parameter -g 
1 # kernel parameter -s 
1 # kernel parameter -r 
empty# kernel parameter -u 
90 # highest feature index 
140 # number of training documents 
31 # number of support vectors plus 1 
2.5350139 # threshold b, each following line is a SV (starting with alpha*y)
-3.3168968317781845e-005 1:75 2:15 3:12 4:48 5:99 6:30 7:39 8:12 10:69 11:36 12:45 13:9 14:42 15:18 16:12 17:24 18:12 19:24 20:36 21:15 22:9 23:30 24:27 25:25 26:24 27:9 28:15 29:39 30:9 31:18 32:27 33:90 34:78 35:24 36:15 37:33 38:12 39:27 40:3 41:18 42:33 44:33 45:105 47:66 48:3 50:21 51:27 52:33 53:45 54:12 55:27 56:30 57:39 58:57 59:12 60:24 61:18 62:42 63:21 64:9 65:48 66:15 67:18 68:27 69:45 70:24 71:72 72:14 74:45 75:57 76:15 77:27 79:9 80:24 81:12 82:24 83:6 84:24 86:6 87:45 89:15 90:57 #
-1.0102995819202271e-005 1:60 2:42 3:21 4:48 5:24 6:36 7:99 8:33 9:9 10:48 11:84 12:138 13:24 14:114 15:3 16:12 17:33 18:18 19:21 20:21 21:3 22:9 23:18 24:18 25:39 26:33 27:15 28:15 29:33 30:9 31:78 32:12 33:69 34:48 35:3 36:30 37:12 38:15 39:24 40:21 41:39 42:24 43:6 44:18 45:21 46:63 47:114 48:96 49:54 50:78 51:165 52:81 53:81 54:21 55:36 56:87 57:93 58:135 59:24 60:87 61:96 62:12 63:18 64:30 65:36 66:78 67:27 68:18 69:126 70:33 71:39 72:36 73:69 74:57 75:78 76:24 77:42 78:6 79:18 80:60 81:12 83:24 84:36 85:27 86:12 87:6 89:12 90:15 #
2.3513720434462053e-005 1:51 2:45 3:3 4:75 5:27 6:51 7:42 8:18 9:12 10:84 11:87 12:66 13:60 14:39 15:9 16:45 17:74 18:33 19:186 20:87 22:9 23:15 24:18 25:69 26:18 27:9 28:24 29:69 30:36 31:93 32:6 33:45 34:6 35:57 36:3 37:15 38:9 39:9 40:12 41:12 42:18 43:9 44:147 45:150 46:21 47:24 48:24 49:18 50:132 51:33 52:63 53:69 54:30 55:51 56:6 57:27 58:21 59:15 60:39 61:87 62:141 63:27 64:48 65:42 66:27 67:84 68:153 69:69 70:28 71:45 72:21 73:18 74:24 75:27 76:57 77:78 78:27 79:6 80:36 81:18 82:57 83:15 84:75 85:99 86:3 87:18 88:12 90:36 #
-7.8789600060796822e-005 1:123 2:57 3:6 4:75 5:51 6:84 7:87 8:69 9:42 10:69 11:99 12:87 13:33 14:63 15:51 16:42 17:18 18:9 19:24 20:21 21:15 22:9 23:24 24:12 25:42 26:6 27:21 28:3 29:99 30:9 31:12 33:105 34:15 36:30 37:6 38:9 39:15 40:12 41:3 42:21 43:18 44:21 45:24 46:3 47:9 48:21 49:6 50:36 51:15 52:66 53:45 54:15 55:48 56:36 57:9 58:24 59:15 60:24 61:15 62:87 63:9 64:15 65:36 67:57 68:6 69:78 70:57 71:63 72:3 73:9 74:45 75:39 76:15 77:12 78:27 79:42 80:9 81:15 82:21 83:21 84:39 85:15 87:9 88:3 89:12 90:24 #
-1.5761620140501322e-005 1:87 2:57 3:33 4:54 5:129 6:45 7:72 8:51 9:27 10:75 11:87 12:96 13:60 14:105 15:21 16:57 17:39 18:42 19:57 20:24 21:18 22:6 23:111 24:33 25:45 26:48 27:33 28:30 29:66 30:30 31:45 32:9 33:99 34:81 35:12 36:48 37:33 38:6 39:18 40:24 41:39 42:39 43:21 44:207 45:78 46:9 47:21 48:45 49:9 50:6 51:30 52:57 53:36 54:15 55:48 57:36 58:3 59:24 60:45 61:27 62:54 63:15 64:45 65:48 66:12 67:44 68:39 69:63 70:24 71:74 72:12 73:6 74:48 75:30 76:45 77:33 78:42 79:27 80:84 81:18 82:201 83:9 84:69 85:60 86:12 87:18 88:9 89:12 90:78 #
2.5463886293448046e-005 1:42 2:18 3:18 4:72 5:24 6:9 7:57 8:6 9:39 10:135 11:72 12:30 13:39 14:39 15:9 16:51 17:54 18:33 19:192 20:69 21:6 22:21 23:42 24:24 25:66 26:18 27:9 28:12 29:66 30:15 31:75 32:6 33:39 34:15 35:18 36:9 37:12 38:18 39:39 40:9 41:36 42:27 43:18 44:99 45:216 46:24 47:21 48:72 49:18 50:117 51:60 52:99 53:81 54:36 55:27 56:15 57:78 58:48 59:27 60:78 61:156 62:126 63:33 64:45 65:54 66:30 67:60 68:120 69:84 70:49 71:63 72:29 73:24 74:39 75:27 76:57 77:42 78:18 79:27 80:75 81:21 82:48 83:12 84:93 85:54 86:3 87:15 90:21 #
-8.3076080339431683e-006 1:60 2:48 3:15 4:78 5:72 6:45 7:120 8:33 9:24 10:72 11:57 12:114 13:87 14:45 15:24 16:18 17:15 18:12 19:69 20:12 21:6 22:9 23:33 24:15 25:39 26:12 27:33 28:42 29:69 30:12 31:78 32:9 33:123 34:36 35:6 36:24 37:3 38:21 39:18 40:72 41:18 42:36 43:21 44:87 45:75 46:60 47:15 48:69 49:66 50:54 51:21 52:138 53:15 54:9 55:6 56:27 57:6 58:6 59:30 60:30 61:60 62:84 63:6 64:54 65:39 66:3 67:42 68:57 69:42 70:33 71:33 72:15 73:24 74:30 75:9 76:66 77:60 78:81 79:27 80:102 81:21 82:27 83:39 84:39 85:51 86:15 87:18 88:21 89:30 90:21 #
7.6199599076084089e-005 1:72 2:102 3:18 4:93 5:18 6:27 7:123 8:36 9:27 10:48 11:123 12:75 13:15 14:57 15:27 16:39 17:12 18:48 19:18 20:36 21:18 22:9 23:30 24:6 25:18 26:3 27:54 28:24 29:69 30:21 31:51 32:18 33:99 34:30 35:21 36:12 37:12 38:33 39:15 40:33 41:9 42:63 43:12 44:15 45:27 46:36 47:33 48:12 49:45 50:57 51:45 52:87 53:51 54:21 55:12 56:3 57:51 58:12 59:45 60:69 61:78 62:78 63:39 64:66 65:30 66:6 67:69 68:72 69:33 70:15 71:48 72:24 73:15 74:33 75:69 76:27 77:42 78:39 79:12 80:84 81:6 82:9 83:12 84:66 85:51 86:33 87:48 88:12 89:15 90:12 #
3.1168849715541334e-005 1:54 2:48 3:18 4:72 5:210 6:12 7:33 8:21 9:27 10:36 11:33 12:60 13:3 14:45 15:33 16:24 17:24 18:36 19:14 20:24 21:33 22:15 23:9 24:15 25:66 26:21 27:27 28:15 29:37 30:9 31:12 32:12 33:51 34:45 36:18 37:33 38:18 39:39 41:12 42:36 44:2 45:51 46:9 47:33 48:21 49:3 50:39 51:21 52:21 53:45 54:21 55:30 56:12 57:39 58:48 59:18 60:18 61:12 62:102 63:24 64:6 65:33 66:3 67:81 68:6 69:117 70:90 71:36 72:21 73:24 74:51 75:99 76:42 77:12 78:9 79:69 80:24 81:51 82:3 83:24 84:72 85:43 86:15 87:12 88:3 89:3 90:36 #
-3.2103633919071418e-005 1:102 2:72 3:33 4:90 5:54 6:18 7:36 8:66 9:12 10:33 11:102 12:129 13:33 14:60 15:21 16:36 17:38 18:15 19:87 20:42 21:27 22:12 23:9 24:15 25:33 26:12 27:39 28:75 29:87 30:30 31:66 32:24 33:54 34:21 35:30 36:45 37:15 38:24 39:21 40:36 41:12 42:78 43:18 44:153 45:48 46:39 47:27 48:45 49:27 50:69 51:39 52:150 53:84 54:21 55:45 56:30 57:66 58:27 59:36 60:24 61:36 62:135 63:24 64:63 65:63 66:15 67:72 68:111 69:48 70:43 71:51 72:27 73:6 74:33 75:21 76:27 77:18 78:57 79:21 80:63 81:21 82:6 83:27 84:36 85:30 86:9 87:36 88:9 89:9 90:18 #
2.8309820561331051e-005 1:27 2:24 3:45 4:21 5:174 6:24 7:42 8:27 9:15 10:111 11:30 12:51 13:30 14:111 15:15 16:21 17:36 18:21 19:18 20:33 21:12 22:3 23:18 24:9 25:48 26:27 27:12 28:24 29:54 30:3 31:15 33:39 34:36 35:3 36:33 38:9 39:18 40:6 41:12 42:21 43:9 44:87 45:81 47:27 48:24 49:6 50:63 51:12 52:30 53:30 54:21 55:30 56:24 57:42 58:15 59:15 60:24 61:33 62:99 63:9 64:36 65:54 66:24 67:48 68:12 69:153 70:81 71:54 72:15 73:21 74:33 75:75 76:36 77:18 78:9 79:84 80:27 81:54 82:99 83:3 84:54 85:30 88:3 89:3 90:30 #
0.00015673275466948438 1:75 2:36 3:9 4:75 5:54 6:36 7:51 8:66 9:27 10:57 11:93 12:60 13:30 14:30 15:27 16:9 17:41 18:39 19:42 20:17 21:6 22:1 23:33 24:21 25:60 26:9 27:6 28:3 29:66 30:9 31:3 32:9 33:66 34:63 35:9 36:51 37:3 38:9 39:3 40:19 41:3 42:15 44:36 45:24 46:36 47:24 48:12 49:27 50:24 51:6 52:15 53:33 54:3 55:9 56:21 57:30 58:12 59:9 60:9 62:90 64:24 65:36 66:27 67:39 68:6 69:39 70:61 71:78 72:9 73:9 74:45 75:15 76:21 77:12 81:33 82:39 84:12 85:45 87:27 89:9 90:27 #
-9.3242877114980628e-006 1:126 2:84 3:42 4:174 5:30 6:54 7:135 8:96 9:18 10:345 11:123 12:198 13:159 14:54 15:3 16:21 17:18 18:69 19:177 20:6 21:33 22:15 23:84 24:42 25:21 26:12 27:39 28:6 29:84 31:102 32:3 33:207 34:42 35:9 36:93 37:15 38:9 39:6 40:36 41:42 42:42 43:12 44:351 45:321 46:24 47:3 48:18 49:36 50:12 51:9 52:75 53:21 54:9 55:15 56:15 57:6 58:18 59:15 60:63 61:153 62:12 63:3 64:90 65:45 66:6 68:60 69:33 70:27 71:36 72:21 73:15 74:39 75:15 76:63 77:42 78:81 79:3 80:147 81:12 82:87 83:60 84:12 85:18 86:24 87:6 88:9 89:15 90:48 #
-5.8441814976228787e-005 1:33 2:18 3:18 4:66 5:42 6:15 7:57 8:21 9:12 10:33 11:57 12:57 13:42 14:51 15:15 16:45 17:117 18:27 19:159 20:102 21:21 22:15 23:24 24:27 25:111 26:12 27:33 28:12 29:82 30:24 31:99 32:18 33:45 34:33 35:78 36:3 37:3 38:15 39:24 40:15 41:6 42:57 43:18 44:27 45:72 46:39 47:33 48:27 49:21 50:135 51:42 52:81 53:99 54:33 55:61 56:6 57:48 58:18 59:30 60:39 61:117 62:93 63:27 64:18 65:12 66:18 67:57 68:60 69:45 70:66 71:45 72:37 73:15 74:12 75:12 76:30 77:54 78:15 79:12 80:42 81:24 82:15 83:9 84:90 85:108 86:15 87:30 88:12 89:9 90:27 #
-6.9635789204190639e-005 1:69 2:30 3:45 4:21 5:147 6:36 7:27 8:6 9:24 10:21 11:60 12:18 13:15 14:42 15:42 16:9 17:27 18:30 19:16 20:21 21:18 22:15 23:39 24:15 25:45 26:12 27:12 28:9 29:55 30:15 31:12 32:6 33:24 34:39 35:6 36:15 37:6 38:15 39:12 40:6 42:6 43:12 44:17 45:6 46:3 47:18 48:33 49:3 50:39 51:24 52:18 53:24 54:3 55:15 56:6 57:24 58:21 59:18 60:9 62:45 63:21 65:27 66:9 67:45 68:9 69:93 70:60 71:45 72:15 74:42 75:48 77:9 78:9 79:51 80:6 81:48 82:39 84:42 85:21 87:18 89:6 90:42 #
-6.2753735515637762e-006 1:90 2:54 3:21 4:48 5:36 6:57 7:54 8:57 9:12 10:27 11:132 12:105 13:24 14:72 15:6 16:9 17:30 18:9 19:33 20:18 21:21 23:15 24:9 25:15 26:3 27:51 28:18 29:30 30:6 31:51 32:3 33:87 34:30 35:12 36:15 37:3 38:18 40:57 41:24 42:120 43:12 44:33 45:15 46:12 47:48 48:48 49:75 50:45 51:15 52:60 53:42 54:12 55:18 56:33 57:39 58:6 59:33 60:48 61:6 62:39 63:3 64:81 65:36 66:3 67:30 68:57 69:87 70:18 71:27 72:30 73:6 74:15 75:9 76:21 77:51 78:69 79:21 80:117 81:12 82:3 83:33 84:30 85:12 86:3 87:9 88:9 89:24 90:60 #
8.8934351440187647e-005 1:105 2:54 3:15 4:78 5:36 6:60 7:63 8:42 9:15 10:36 11:96 12:90 13:27 14:72 15:39 16:45 17:15 18:12 19:42 20:57 21:18 22:3 23:18 24:21 25:57 26:24 27:69 28:45 29:72 30:9 31:90 32:9 33:54 34:36 35:39 36:15 37:12 38:39 39:30 40:21 41:36 42:96 43:9 44:57 45:48 46:45 47:21 48:72 49:39 50:66 51:45 52:84 53:99 54:27 55:12 56:30 57:45 58:6 59:9 60:51 61:30 62:108 63:18 64:81 65:69 66:18 67:57 68:99 69:66 70:33 71:24 72:30 73:51 74:27 75:42 76:24 77:48 78:69 79:18 80:69 81:27 82:9 83:30 84:42 85:54 86:18 87:30 88:15 89:12 90:45 #
-2.4525426514468505e-005 1:24 2:33 3:6 4:57 5:60 6:36 7:57 8:30 9:12 10:78 11:84 12:69 13:27 14:57 15:27 16:27 17:33 18:78 19:105 20:51 21:24 22:5 23:51 24:25 25:69 26:12 27:36 28:12 29:81 30:3 31:57 33:66 34:18 35:30 36:24 37:9 38:15 39:9 40:15 41:18 42:41 44:18 45:42 46:18 47:9 48:12 50:18 51:3 52:12 53:30 54:18 55:15 56:6 57:21 58:6 59:18 60:42 61:21 62:48 63:15 64:15 65:18 66:15 67:45 68:24 69:48 70:30 71:36 72:12 73:6 74:15 75:18 76:48 77:48 78:21 79:15 80:39 81:24 82:24 83:27 84:42 85:36 86:9 87:9 88:6 89:9 90:51 #
-1.418866653859384e-005 1:150 2:84 3:27 4:114 5:21 6:69 7:171 8:144 9:12 10:186 11:99 12:147 13:84 14:111 15:6 16:66 17:26 18:33 19:120 20:63 21:66 22:75 23:156 24:42 25:33 26:30 27:57 28:36 29:72 30:15 31:108 32:6 33:159 34:45 35:57 36:54 37:33 38:17 39:15 40:78 41:42 42:102 43:21 44:240 45:186 46:54 47:33 48:96 49:63 50:99 51:129 52:66 53:69 54:54 55:54 56:48 57:57 58:51 59:63 60:69 61:102 62:66 63:54 64:60 65:42 66:18 67:70 68:66 69:54 70:34 71:48 72:24 73:30 74:39 75:78 76:144 77:69 78:129 79:18 80:102 81:27 82:171 83:81 84:117 85:45 86:48 87:24 88:18 89:57 90:48 #
7.5481402147395968e-005 1:42 2:21 3:33 4:54 5:198 6:51 7:51 8:24 9:12 10:57 11:54 12:45 13:12 14:84 15:18 16:27 17:45 18:33 19:21 20:45 21:24 22:27 23:51 24:30 25:36 26:9 27:12 28:3 29:18 30:18 31:30 32:9 33:57 34:75 35:6 36:24 37:3 38:9 39:24 40:18 41:3 42:30 44:30 45:36 46:21 47:18 48:21 49:3 50:48 51:33 52:9 53:33 54:18 55:24 56:24 57:18 58:24 59:9 60:9 62:54 63:21 64:18 65:57 66:9 67:48 68:9 69:144 70:36 71:51 72:18 73:18 74:57 75:90 76:18 77:15 78:6 79:72 80:18 81:54 82:84 83:9 84:78 85:36 86:6 87:3 88:3 90:48 #
-1.2381369319384881e-005 1:33 2:21 3:9 4:18 5:9 7:12 8:3 9:12 11:51 12:75 13:3 14:63 15:9 16:3 17:6 18:3 19:6 20:6 21:15 22:6 24:3 26:15 27:12 28:6 29:45 30:12 31:45 32:9 33:15 34:15 36:6 37:18 38:15 39:12 41:9 42:15 43:3 44:3 46:45 47:117 48:114 49:54 50:216 51:153 52:42 53:114 54:15 55:57 56:39 57:177 58:48 59:30 60:3 61:3 62:117 63:33 64:45 65:45 66:72 67:135 68:42 69:84 70:6 71:12 72:12 73:48 74:24 75:18 76:12 78:18 79:18 80:6 81:18 83:18 84:12 85:3 86:3 87:24 89:9 90:27 #
-5.1258405643217214e-005 1:81 2:72 3:27 4:78 5:51 6:42 7:36 8:48 9:24 10:33 11:126 12:90 13:48 14:57 15:9 16:30 17:23 18:36 19:45 20:30 21:33 22:12 23:15 24:42 25:51 26:21 27:36 28:63 29:78 30:30 31:72 32:15 33:39 34:3 35:18 36:30 37:18 38:33 39:24 40:27 41:12 42:90 44:54 45:36 46:36 47:60 48:51 49:18 50:90 51:39 52:96 53:72 54:12 55:21 56:24 57:45 58:3 59:27 60:27 61:21 62:108 63:12 64:39 65:51 66:3 67:51 68:96 69:60 70:37 71:54 72:18 73:6 74:36 75:9 76:36 77:36 78:33 79:21 80:48 81:24 82:3 83:36 84:57 85:33 86:24 87:12 88:6 89:18 90:36 #
1.9861399386589168e-005 1:51 2:33 3:18 4:87 5:30 6:57 7:30 8:24 9:24 10:114 11:78 12:75 13:54 14:24 15:6 16:66 17:56 18:27 19:255 20:102 22:24 23:30 24:21 25:42 26:27 27:18 28:18 29:51 30:12 31:69 32:12 33:27 34:6 35:30 37:18 38:6 39:12 40:15 41:36 42:27 43:24 44:153 45:186 46:24 47:18 48:39 49:27 50:120 51:27 52:63 53:90 54:18 55:60 56:15 57:66 58:18 59:24 60:69 61:135 62:165 63:15 64:54 65:39 66:24 67:69 68:102 69:81 70:49 71:72 72:26 73:18 74:21 75:21 76:60 77:42 78:27 79:12 80:63 81:27 82:12 83:12 84:108 85:63 86:3 87:9 88:12 89:3 90:36 #
-9.3373572994256289e-006 1:57 2:33 3:15 4:45 5:57 6:39 7:69 8:21 9:3 10:96 11:72 12:81 13:48 14:45 15:18 16:15 17:30 18:12 19:69 20:33 21:24 22:3 23:66 24:27 25:36 26:6 27:45 28:27 29:54 30:51 31:75 32:24 33:102 34:15 35:6 36:54 37:12 38:27 39:9 40:18 41:15 42:87 43:3 44:147 45:75 46:6 47:9 48:9 49:15 50:45 51:18 52:21 53:12 55:6 56:15 57:39 58:3 59:21 60:27 61:18 62:90 63:24 64:21 65:48 66:3 67:102 68:6 69:51 70:33 71:60 72:3 74:15 75:36 76:12 77:21 78:42 79:24 80:48 81:21 82:36 83:12 84:54 85:21 86:12 87:12 88:3 90:48 #
-2.4315718013333265e-005 1:24 2:18 3:12 4:75 5:27 6:33 7:36 8:18 9:9 10:93 11:72 12:48 13:30 14:48 15:36 16:33 17:6 18:9 19:108 20:51 21:12 22:15 23:54 24:30 25:24 26:9 27:21 28:27 29:63 30:6 31:48 32:6 33:60 34:24 35:60 36:24 37:27 38:27 39:27 40:18 42:18 44:57 45:99 46:18 47:6 48:6 49:15 50:36 51:12 52:30 53:78 54:30 55:30 56:12 57:27 58:6 59:36 60:57 61:39 62:57 63:18 64:15 65:39 66:18 67:27 68:45 69:33 70:6 71:36 72:24 74:12 75:9 76:45 77:57 78:21 79:21 80:60 81:6 82:69 83:24 84:66 85:93 86:3 87:27 88:9 89:15 90:54 #
-1.8636010640448981e-006 1:21 2:24 3:21 4:69 5:12 6:24 7:48 8:24 9:12 10:111 11:72 12:93 13:75 14:18 15:45 16:57 17:81 18:24 19:174 20:78 21:12 22:12 23:45 24:15 25:57 26:9 27:30 28:18 29:87 30:21 31:81 32:24 33:42 34:9 35:84 36:36 37:30 38:12 39:6 40:9 41:15 42:45 43:12 44:129 45:192 46:24 47:51 48:12 49:3 50:129 51:24 52:63 53:51 54:12 55:21 56:21 57:111 58:33 59:18 60:45 61:39 62:57 63:24 64:30 65:21 66:3 67:69 68:105 69:75 70:15 71:42 72:36 73:6 74:6 75:9 76:48 77:39 78:9 79:12 80:33 81:6 82:51 83:3 84:123 85:96 86:9 87:12 88:3 89:6 90:39 #
-2.5680885478436707e-006 1:24 2:69 3:21 4:18 5:21 6:33 7:60 8:3 9:27 10:9 11:21 12:63 13:12 14:69 15:18 16:21 17:12 18:18 19:6 20:27 21:6 22:6 25:3 26:6 27:15 28:27 29:75 30:39 31:15 32:36 33:54 34:27 35:21 36:9 37:6 38:45 39:12 40:6 41:24 42:21 43:12 44:3 45:12 46:153 47:108 48:162 49:177 50:291 51:321 52:60 53:258 54:123 55:99 56:129 57:279 58:75 59:57 60:102 61:27 62:102 63:21 64:33 65:45 66:84 67:111 68:30 69:63 70:27 71:54 72:39 73:30 74:51 75:30 76:63 77:15 78:6 79:15 80:24 81:30 82:3 83:15 84:60 85:21 86:9 87:54 88:6 89:12 #
-9.0448145578058845e-007 1:75 2:81 3:48 4:60 5:57 6:93 7:132 8:30 9:45 10:78 11:81 12:150 13:78 14:87 15:6 16:30 17:39 18:36 19:96 20:93 21:27 22:12 23:6 24:18 25:46 26:18 27:36 28:21 29:81 30:27 31:135 32:12 33:144 34:54 35:21 36:42 37:15 38:20 39:6 40:39 41:54 42:42 43:39 44:105 45:96 46:156 47:120 48:105 49:96 50:141 51:219 52:210 53:123 54:39 55:90 56:135 57:144 58:132 59:66 60:138 61:141 62:21 63:33 64:123 65:39 66:30 67:40 68:111 69:45 70:48 71:69 72:65 73:54 74:51 75:96 76:129 77:69 78:27 79:30 80:54 81:39 82:9 83:15 84:63 85:87 86:12 87:33 88:18 89:39 90:18 #
-6.1647443420558262e-005 1:27 2:48 3:21 4:48 5:183 6:24 7:30 8:24 9:18 10:24 11:33 12:27 13:1 14:57 15:30 16:21 17:38 18:45 19:8 20:12 21:18 22:24 23:45 24:21 25:39 26:18 27:9 28:6 29:37 30:3 31:18 32:15 33:45 34:30 36:18 37:3 38:3 39:27 40:3 41:21 42:15 43:3 44:7 45:21 46:15 47:18 48:12 49:9 50:12 52:24 53:48 54:6 55:12 56:3 57:15 58:9 59:21 60:36 61:3 62:51 63:15 64:6 65:45 66:6 67:36 68:6 69:54 70:37 71:54 72:24 73:6 74:33 75:27 76:6 77:9 78:3 79:57 80:33 81:51 82:24 83:6 84:45 85:22 86:9 87:3 88:3 89:3 90:30 #
-7.6353417309483694e-007 1:69 2:30 3:6 4:99 5:36 6:60 7:75 8:36 9:15 10:129 11:69 12:81 13:60 14:39 15:18 16:15 17:9 18:15 19:42 20:15 21:6 23:18 24:3 25:3 26:3 27:42 28:12 29:78 30:3 31:63 33:33 34:3 35:3 36:15 37:3 39:6 40:9 41:6 42:30 43:3 44:123 45:126 46:6 48:18 50:9 52:63 53:21 54:6 55:18 57:18 58:3 59:27 60:6 61:24 62:42 63:6 64:39 65:21 66:12 67:3 68:48 69:63 70:9 71:21 72:12 73:3 75:12 76:24 77:27 78:33 79:21 80:39 81:6 82:24 83:24 84:45 85:81 88:6 89:6 90:24 #
