SVM-light Version V6.01
0 # kernel type
3 # kernel parameter -d 
1 # kernel parameter -g 
1 # kernel parameter -s 
1 # kernel parameter -r 
empty# kernel parameter -u 
7 # highest feature index 
140 # number of training documents 
113 # number of support vectors plus 1 
-0.20013879 # threshold b, each following line is a SV (starting with alpha*y)
-1 1:89.609116 2:0.1827409 3:8.3446093 4:0.00085030607 5:1.0027738 6:42.432316 7:48 #
1 1:86.277542 2:0.18165365 3:11.643789 4:0.00084480585 5:1.0044063 6:49.095459 7:48 #
1 1:87.730385 2:0.18163411 3:10.069271 4:0.00081108551 5:1.0034719 6:46.189766 7:48 #
1 1:87.789894 2:0.18236329 3:10.009531 4:0.00081496924 5:1.0033782 6:46.070755 7:48 #
-1 1:91.734604 2:0.1823177 3:6.7467904 4:0.00082845148 5:1.0022228 6:38.181339 7:48 #
1 1:82.698418 2:0.17803711 3:16.654587 4:0.00085978495 5:1.0061003 6:56.253712 7:48 #
-1 1:84.673729 2:0.17901693 3:13.669323 4:0.00086126453 5:1.0042793 6:52.303082 7:48 #
1 1:88.623024 2:0.18228516 3:9.2094011 4:0.00080686528 5:1.0030853 6:44.404495 7:48 #
-1 1:85.244453 2:0.18208659 3:12.911032 4:0.00086463732 5:1.0042619 6:51.161644 7:48 #
1 1:84.576324 2:0.18248698 3:13.803118 4:0.00082869589 5:1.0049319 6:52.49789 7:48 #
1 1:89.129227 2:0.18225911 3:8.754818 4:0.00079022191 5:1.0025516 6:43.392082 7:48 #
-1 1:85.681938 2:0.18180013 3:12.358369 4:0.00087008724 5:1.0037315 6:50.286671 7:48 #
1 1:89.395515 2:0.18229167 3:8.524766 4:0.00078015903 5:1.0024914 6:42.859512 7:48 #
1 1:87.537506 2:0.1823763 3:10.265371 4:0.00081458467 5:1.0034431 6:46.575523 7:48 #
-1 1:89.605675 2:0.18204427 3:8.3474808 4:0.00084552437 5:1.0027322 6:42.439194 7:48 #
1 1:83.093697 2:0.1825293 3:16.009106 4:0.00087144668 5:1.0060409 6:55.463154 7:48 #
-1 1:90.095886 2:0.18197265 3:7.9481444 4:0.00087621051 5:1.0026402 6:41.458771 7:48 #
-1 1:85.171082 2:0.18256184 3:13.00611 4:0.00085535093 5:1.003958 6:51.308384 7:48 #
1 1:88.823662 2:0.18254232 3:9.0264683 4:0.00080688053 5:1.0030988 6:44.003223 7:48 #
-1 1:87.42926 2:0.18231446 3:10.3771 4:0.00084427861 5:1.0034382 6:46.792027 7:48 #
-1 1:85.019775 2:0.18036784 3:13.204398 4:0.00087018951 5:1.0049788 6:51.611 7:48 #
-1 1:88.17009 2:0.18219076 3:9.636116 4:0.00086034968 5:1.0029514 6:45.310364 7:48 #
1 1:87.326065 2:0.18201824 3:10.48474 4:0.00078445202 5:1.0028162 6:46.998417 7:48 #
-1 1:88.579887 2:0.1784668 3:9.2492094 4:0.00090476073 5:1.0031849 6:44.490761 7:48 #
-1 1:88.893143 2:0.18207356 3:8.9639683 4:0.00078991742 5:1.0027145 6:43.864262 7:48 #
-1 1:86.745255 2:0.18216798 3:11.111732 4:0.00080129813 5:1.0033678 6:48.16003 7:48 #
-1 1:84.823174 2:0.18233398 3:13.466566 4:0.00084595621 5:1.0042216 6:52.0042 7:48 #
1 1:83.340508 2:0.18215495 3:15.618815 4:0.00085464219 5:1.0056897 6:54.969524 7:48 #
1 1:88.458763 2:0.18203776 3:9.3619204 4:0.00079302909 5:1.0026931 6:44.733009 7:48 #
-0.18817671976172692 1:83.739151 2:0.18001302 3:15.008431 4:0.00088604266 5:1.0054936 6:54.172241 7:48 #
-1 1:88.503616 2:0.18216798 3:9.3200264 4:0.00086059468 5:1.0031193 6:44.643307 7:48 #
-1 1:88.859894 2:0.18220703 3:8.9938211 4:0.00090476125 5:1.0029995 6:43.930756 7:48 #
-1 1:88.846031 2:0.18200846 3:9.006299 4:0.00090954715 5:1.0030377 6:43.958485 7:48 #
1 1:87.162468 2:0.18103841 3:10.657673 4:0.00081126468 5:1.0037169 6:47.3256 7:48 #
-1 1:85.950233 2:0.18220703 3:12.031204 4:0.00084583019 5:1.0037024 6:49.750072 7:48 #
1 1:88.117699 2:0.17850912 3:9.6867313 4:0.00079307501 5:1.0032414 6:45.415142 7:48 #
-1 1:84.671692 2:0.18234701 3:13.672106 4:0.00086394238 5:1.0040663 6:52.307156 7:48 #
1 1:83.860474 2:0.18242188 3:14.827448 4:0.00087644014 5:1.0054756 6:53.9296 7:48 #
-1 1:88.248566 2:0.18300456 3:9.560791 4:0.00087949843 5:1.0030302 6:45.153408 7:48 #
-1 1:87.964973 2:0.18204753 3:9.8358107 4:0.00085271738 5:1.00304 6:45.720596 7:48 #
1 1:84.378296 2:0.18214518 3:14.079189 4:0.00084751699 5:1.0051551 6:52.893955 7:48 #
-1 1:87.875488 2:0.18197265 3:9.9242191 4:0.00090446556 5:1.0032156 6:45.899563 7:48 #
-1 1:87.698448 2:0.18210939 3:10.101484 4:0.00082393212 5:1.0032156 6:46.253647 7:48 #
-1 1:84.036469 2:0.18262695 3:14.568773 4:0.00094535068 5:1.0049883 6:53.577606 7:48 #
1 1:83.874832 2:0.18192708 3:14.806172 4:0.00085962302 5:1.0055063 6:53.900883 7:48 #
-1 1:87.268356 2:0.18223633 3:10.54542 4:0.00083272427 5:1.0036616 6:47.113834 7:48 #
1 1:85.505974 2:0.18164387 3:12.577757 4:0.00080219016 5:1.0039442 6:50.638599 7:48 #
1 1:88.185135 2:0.18238607 3:9.6216307 4:0.00083108904 5:1.0035737 6:45.280277 7:48 #
-1 1:84.386429 2:0.18099935 3:14.067744 4:0.00089822279 5:1.0048059 6:52.877689 7:48 #
0.18817671976172692 1:89.57756 2:0.18214193 3:8.3709831 4:0.00078125542 5:1.0024513 6:42.495426 7:48 #
1 1:87.964714 2:0.18194336 3:9.8360643 4:0.00084052765 5:1.0037965 6:45.721115 7:48 #
1 1:84.218086 2:0.18286133 3:14.306559 4:0.00085360213 5:1.0052055 6:53.214363 7:48 #
-1 1:85.485481 2:0.18254232 3:12.603551 4:0.00082328561 5:1.0039029 6:50.679573 7:48 #
1 1:86.979744 2:0.18232097 3:10.854209 4:0.00081218523 5:1.0038029 6:47.691059 7:48 #
1 1:88.762634 2:0.18224609 3:9.0817184 4:0.00080503378 5:1.0030431 6:44.125271 7:48 #
1 1:88.994095 2:0.18240561 3:8.873929 4:0.00077959959 5:1.002461 6:43.662354 7:48 #
-1 1:87.683022 2:0.18193033 3:10.11708 4:0.00085106323 5:1.0031959 6:46.2845 7:48 #
1 1:86.232697 2:0.18277995 3:11.696126 4:0.00082992681 5:1.0040148 6:49.185154 7:48 #
1 1:89.462952 2:0.18200195 3:8.4674711 4:0.0007775444 5:1.0024083 6:42.724636 7:48 #
-1 1:84.377373 2:0.18167318 3:14.080488 4:0.00082746655 5:1.004408 6:52.895802 7:48 #
-1 1:84.386688 2:0.18239583 3:14.06737 4:0.00085493404 5:1.0046355 6:52.877159 7:48 #
1 1:84.448837 2:0.18219401 3:13.980221 4:0.00086851174 5:1.0051723 6:52.752872 7:48 #
-1 1:84.563599 2:0.18301758 3:13.8207 4:0.00079877395 5:1.0038587 6:52.52335 7:48 #
1 1:87.895889 2:0.18227538 3:9.9039946 4:0.00078541908 5:1.0028455 6:45.858761 7:48 #
-1 1:85.882439 2:0.18213542 3:12.113047 4:0.00088442356 5:1.0037973 6:49.885662 7:48 #
-1 1:84.217331 2:0.18239258 3:14.307646 4:0.00079256779 5:1.0038667 6:53.215881 7:48 #
1 1:84.99498 2:0.18235677 3:13.237174 4:0.00085884839 5:1.0048728 6:51.660583 7:48 #
-1 1:86.358994 2:0.18229492 3:11.549333 4:0.00086317398 5:1.0042011 6:48.932552 7:48 #
1 1:89.078224 2:0.18234701 3:8.7995863 4:0.00084238121 5:1.0030724 6:43.494095 7:48 #
1 1:86.120827 2:0.18226238 3:11.827705 4:0.00086563471 5:1.0043808 6:49.408894 7:48 #
-1 1:85.39518 2:0.1821582 3:12.717881 4:0.00087966386 5:1.0044875 6:50.86018 7:48 #
1 1:85.138649 2:0.18204753 3:13.048356 4:0.00082228944 5:1.0045834 6:51.373241 7:48 #
-1 1:87.148369 2:0.18216798 3:10.672715 4:0.0008595268 5:1.0035616 6:47.353809 7:48 #
1 1:85.478592 2:0.18131185 3:12.612243 4:0.00088320399 5:1.0045066 6:50.693359 7:48 #
1 1:85.143379 2:0.18224609 3:13.042188 4:0.00082195434 5:1.0045499 6:51.363785 7:48 #
-1 1:86.012459 2:0.18218099 3:11.956576 4:0.00087360141 5:1.0038356 6:49.625629 7:48 #
-1 1:83.912148 2:0.18251628 3:14.751019 4:0.00080591312 5:1.0043254 6:53.826244 7:48 #
1 1:88.180603 2:0.18316732 3:9.6259928 4:0.00081300142 5:1.0032911 6:45.289341 7:48 #
1 1:85.284142 2:0.18206055 3:12.859886 4:0.00082040153 5:1.0046668 6:51.082256 7:48 #
-1 1:87.684662 2:0.18252604 3:10.115417 4:0.00088757963 5:1.0033242 6:46.281212 7:48 #
1 1:86.77195 2:0.18247069 3:11.082106 4:0.0008026936 5:1.0034726 6:48.106636 7:48 #
-1 1:85.427658 2:0.18201824 3:12.676641 4:0.00083333359 5:1.0040421 6:50.795219 7:48 #
1 1:85.564667 2:0.18222982 3:12.504144 4:0.00084216968 5:1.0041778 6:50.521202 7:48 #
-1 1:87.348015 2:0.18226562 3:10.461751 4:0.00081526506 5:1.0034211 6:46.954517 7:48 #
1 1:85.744667 2:0.18236978 3:12.281087 4:0.00083501899 5:1.0041995 6:50.161209 7:48 #
-1 1:85.528824 2:0.18207683 3:12.549049 4:0.00081672979 5:1.0036761 6:50.592899 7:48 #
1 1:88.099541 2:0.18231446 3:9.704339 4:0.00081391638 5:1.003611 6:45.451462 7:48 #
-1 1:87.251343 2:0.18215169 3:10.563376 4:0.00091956096 5:1.003563 6:47.147858 7:48 #
1 1:85.790398 2:0.18247069 3:12.225049 4:0.00085139018 5:1.0041119 6:50.06974 7:48 #
-1 1:87.210846 2:0.18141276 3:10.606237 4:0.00088480773 5:1.0033818 6:47.228844 7:48 #
1 1:86.765907 2:0.18212564 3:11.088812 4:0.00081868109 5:1.0037243 6:48.118732 7:48 #
1 1:86.195168 2:0.18257813 3:11.740098 4:0.00086243649 5:1.0044243 6:49.260204 7:48 #
-1 1:87.159592 2:0.18220378 3:10.660739 4:0.00079405477 5:1.0032097 6:47.331356 7:48 #
-1 1:86.12133 2:0.18177409 3:11.827106 4:0.00089273904 5:1.0039663 6:49.407883 7:48 #
1 1:86.225662 2:0.18237956 3:11.704352 4:0.0008171848 5:1.0042301 6:49.199215 7:48 #
-1 1:86.968719 2:0.18212891 3:10.866178 4:0.0009165472 5:1.0035444 6:47.7131 7:48 #
-1 1:86.944733 2:0.18187825 3:10.892275 4:0.00083309837 5:1.0037863 6:47.761078 7:48 #
-1 1:85.409103 2:0.17677408 3:12.700186 4:0.00092116965 5:1.0045073 6:50.832333 7:48 #
1 1:86.532516 2:0.18256509 3:11.350651 4:0.00083166221 5:1.0040027 6:48.585503 7:48 #
-1 1:86.94413 2:0.18181966 3:10.892933 4:0.00083348696 5:1.0037944 6:47.762283 7:48 #
1 1:86.601761 2:0.18246093 3:11.272331 4:0.00083435199 5:1.0038887 6:48.447021 7:48 #
1 1:88.443291 2:0.18138672 3:9.3764191 4:0.00080351054 5:1.0031534 6:44.763958 7:48 #
-1 1:86.88382 2:0.18206707 3:10.958825 4:0.00084596698 5:1.0037855 6:47.8829 7:48 #
1 1:86.694626 2:0.18211263 3:11.168135 4:0.00082486204 5:1.0037957 6:48.261292 7:48 #
-1 1:84.501068 2:0.18179688 3:13.907389 4:0.00085050036 5:1.0045913 6:52.648407 7:48 #
1 1:86.704323 2:0.18226238 3:11.157308 4:0.00081823504 5:1.0037688 6:48.241894 7:48 #
-1 1:86.356697 2:0.17396484 3:11.551986 4:0.00086690421 5:1.0036788 6:48.937145 7:48 #
1 1:86.755356 2:0.18263672 3:11.100514 4:0.00083232799 5:1.0041267 6:48.139828 7:48 #
1 1:86.844353 2:0.18263672 3:11.002161 4:0.00080012297 5:1.0033801 6:47.961834 7:48 #
1 1:86.890366 2:0.18261719 3:10.951654 4:0.00079756411 5:1.0034199 6:47.869808 7:48 #
-1 1:85.883347 2:0.18245117 3:12.11195 4:0.00084952422 5:1.0039414 6:49.88385 7:48 #
1 1:86.926437 2:0.18234375 3:10.91222 4:0.000813775 5:1.0038323 6:47.797665 7:48 #
